{"learner":{"attributes":{"scikit_learn":"{\"_estimator_type\": \"regressor\"}"},"feature_names":["headwind_sq","tailwind","crosswind","flow_rate","water_temp","hour_of_day","boat_class_1x","boat_class_2x","boat_class_4x","boat_class_8+","sex_men","sex_women","weight_class_lightweight","weight_class_openweight","direction_downstream","direction_upstream"],"feature_types":["float","float","float","float","float","int","float","float","float","float","float","float","float","float","float","float"],"gradient_booster":{"model":{"cats":{"enc":[],"feature_segments":[],"sorted_idx":[]},"gbtree_model_param":{"num_parallel_tree":"1","num_trees":"300"},"iteration_indptr":[0,1,2,3,4,5,6,7,8,9,10,11,12,13,14,15,16,17,18,19,20,21,22,23,24,25,26,27,28,29,30,31,32,33,34,35,36,37,38,39,40,41,42,43,44,45,46,47,48,49,50,51,52,53,54,55,56,57,58,59,60,61,62,63,64,65,66,67,68,69,70,71,72,73,74,75,76,77,78,79,80,81,82,83,84,85,86,87,88,89,90,91,92,93,94,95,96,97,98,99,100,101,102,103,104,105,106,107,108,109,110,111,112,113,114,115,116,117,118,119,120,121,122,123,124,125,126,127,128,129,130,131,132,133,134,135,136,137,138,139,140,141,142,143,144,145,146,147,148,149,150,151,152,153,154,155,156,157,158,159,160,161,162,163,164,165,166,167,168,169,170,171,172,173,174,175,176,177,178,179,180,181,182,183,184,185,186,187,188,189,190,191,192,193,194,195,196,197,198,199,200,201,202,203,204,205,206,207,208,209,210,211,212,213,214,215,216,217,218,219,220,221,222,223,224,225,226,227,228,229,230,231,232,233,234,235,236,237,238,239,240,241,242,243,244,245,246,247,248,249,250,251,252,253,254,255,256,257,258,259,260,261,262,263,264,265,266,267,268,269,270,271,272,273,274,275,276,277,278,279,280,281,282,283,284,285,286,287,288,289,290,291,292,293,294,295,296,297,298,299,300],"tree_info":[0,0,0,0,0,0,0,0,0,0,0,0,0,0,0,0,0,0,0,0,0,0,0,0,0,0,0,0,0,0,0,0,0,0,0,0,0,0,0,0,0,0,0,0,0,0,0,0,0,0,0,0,0,0,0,0,0,0,0,0,0,0,0,0,0,0,0,0,0,0,0,0,0,0,0,0,0,0,0,0,0,0,0,0,0,0,0,0,0,0,0,0,0,0,0,0,0,0,0,0,0,0,0,0,0,0,0,0,0,0,0,0,0,0,0,0,0,0,0,0,0,0,0,0,0,0,0,0,0,0,0,0,0,0,0,0,0,0,0,0,0,0,0,0,0,0,0,0,0,0,0,0,0,0,0,0,0,0,0,0,0,0,0,0,0,0,0,0,0,0,0,0,0,0,0,0,0,0,0,0,0,0,0,0,0,0,0,0,0,0,0,0,0,0,0,0,0,0,0,0,0,0,0,0,0,0,0,0,0,0,0,0,0,0,0,0,0,0,0,0,0,0,0,0,0,0,0,0,0,0,0,0,0,0,0,0,0,0,0,0,0,0,0,0,0,0,0,0,0,0,0,0,0,0,0,0,0,0,0,0,0,0,0,0,0,0,0,0,0,0,0,0,0,0,0,0,0,0,0,0,0,0,0,0,0,0,0,0,0,0,0,0,0,0,0,0,0,0,0,0],"trees":[{"base_weights":[5.3837663E-3,-1.9034868E0,1.7046752E0,-2.2746556E0,3.220872E-1,7.787327E-1,2.634615E0,-3.056588E0,-1.367317E0,-6.0710984E-1,9.697648E-1,4.1350722E-1,2.7252235E0,2.2801178E0,4.9193244E0,-3.5851974E0,-2.6944005E0,-1.653401E0,-8.5463333E-1,-1.1869936E0,8.94861E-1,4.454957E-1,1.8779111E0,-1.1260827E-1,8.392827E-1,1.9644576E0,3.6281734E0,1.8714702E0,2.7602763E0,5.395713E0,3.5707557E0,-1.9370912E-1,-1.4618173E-1,-1.4541076E-1,-1.0411719E-1,-9.129733E-2,-4.4114124E-2,-2.9766759E-2,-6.656746E-2,-7.653222E-2,-2.9294848E-2,-1.1304783E-3,5.8638077E-2,5.9215636E-3,5.0255366E-2,7.088431E-2,1.21368766E-1,-1.6432634E-2,2.3783041E-2,5.9381552E-2,2.5071582E-2,7.045815E-2,1.1948774E-1,1.9521497E-1,1.3043766E-1,8.121452E-2,1.22478046E-1,1.5378694E-1,9.5253244E-2,2.4269752E-1,3.5359538E-1,1.3761239E-1,2.0649032E-1],"categories":[],"categories_nodes":[],"categories_segments":[],"categories_sizes":[],"default_left":[0,0,0,0,0,0,0,0,0,0,0,0,0,0,0,0,0,0,0,0,0,0,0,0,0,0,0,0,0,0,0,0,0,0,0,0,0,0,0,0,0,0,0,0,0,0,0,0,0,0,0,0,0,0,0,0,0,0,0,0,0,0,0],"id":0,"left_children":[1,3,5,7,9,11,13,15,17,19,21,23,25,27,29,31,33,35,37,39,41,43,45,47,49,51,53,55,57,59,61,-1,-1,-1,-1,-1,-1,-1,-1,-1,-1,-1,-1,-1,-1,-1,-1,-1,-1,-1,-1,-1,-1,-1,-1,-1,-1,-1,-1,-1,-1,-1,-1],"loss_changes":[2.3231576E4,2.787045E3,3.260546E3,2.0469199E3,2.9126788E2,1.3495985E3,1.5195371E3,2.874795E2,1.9512549E2,1.743849E2,1.3485562E2,3.587298E2,1.9895264E2,3.1623535E2,1.4327148E2,1.0873584E2,1.1499609E2,1.1268164E2,5.8788147E1,2.8848907E1,1.4304588E1,3.3192253E1,2.2857971E1,9.128147E1,1.0356006E2,3.559967E1,2.8097168E1,1.2290967E2,1.9675098E2,1.3367188E2,2.0207214E1,0E0,0E0,0E0,0E0,0E0,0E0,0E0,0E0,0E0,0E0,0E0,0E0,0E0,0E0,0E0,0E0,0E0,0E0,0E0,0E0,0E0,0E0,0E0,0E0,0E0,0E0,0E0,0E0,0E0,0E0,0E0,0E0],"parents":[2147483647,0,0,1,1,2,2,3,3,4,4,5,5,6,6,7,7,8,8,9,9,10,10,11,11,12,12,13,13,14,14,15,15,16,16,17,17,18,18,19,19,20,20,21,21,22,22,23,23,24,24,25,25,26,26,27,27,28,28,29,29,30,30],"right_children":[2,4,6,8,10,12,14,16,18,20,22,24,26,28,30,32,34,36,38,40,42,44,46,48,50,52,54,56,58,60,62,-1,-1,-1,-1,-1,-1,-1,-1,-1,-1,-1,-1,-1,-1,-1,-1,-1,-1,-1,-1,-1,-1,-1,-1,-1,-1,-1,-1,-1,-1,-1,-1],"split_conditions":[-2.5568312E2,7.7990875E1,2.3910952E3,-2.4875742E3,-2.9456067E3,6.586882E1,8.311304E1,-3.9857122E3,-1.0841255E3,2.2189105E2,1.8571426E2,9.9860626E2,1.579274E2,3.8254636E3,1E0,1.3294973E0,2.984674E0,1.1091407E1,3.8405473E0,1.4633917E2,-4.403615E3,-1.2087056E3,-1.6443469E3,2.67231E0,1.4073743E0,8.495209E2,1E0,3.5411797E0,1E0,2.4084183E2,1.6158868E2,-1.9370912E-1,-1.4618173E-1,-1.4541076E-1,-1.0411719E-1,-9.129733E-2,-4.4114124E-2,-2.9766759E-2,-6.656746E-2,-7.653222E-2,-2.9294848E-2,-1.1304783E-3,5.8638077E-2,5.9215636E-3,5.0255366E-2,7.088431E-2,1.21368766E-1,-1.6432634E-2,2.3783041E-2,5.9381552E-2,2.5071582E-2,7.045815E-2,1.1948774E-1,1.9521497E-1,1.3043766E-1,8.121452E-2,1.22478046E-1,1.5378694E-1,9.5253244E-2,2.4269752E-1,3.5359538E-1,1.3761239E-1,2.0649032E-1],"split_indices":[3,0,3,3,3,0,0,3,3,0,0,3,0,3,9,0,0,0,1,0,3,3,3,0,1,3,9,0,9,0,0,0,0,0,0,0,0,0,0,0,0,0,0,0,0,0,0,0,0,0,0,0,0,0,0,0,0,0,0,0,0,0,0],"split_type":[0,0,0,0,0,0,0,0,0,0,0,0,0,0,0,0,0,0,0,0,0,0,0,0,0,0,0,0,0,0,0,0,0,0,0,0,0,0,0,0,0,0,0,0,0,0,0,0,0,0,0,0,0,0,0,0,0,0,0,0,0,0,0],"sum_hessian":[7.16E3,3.372E3,3.788E3,2.89E3,4.82E2,1.899E3,1.889E3,1.551E3,1.339E3,1.98E2,2.84E2,1.6E3,2.99E2,1.637E3,2.52E2,6.27E2,9.24E2,8.58E2,4.81E2,1.43E2,5.5E1,1.81E2,1.03E2,7.16E2,8.84E2,1.64E2,1.35E2,8.87E2,7.5E2,1.84E2,6.8E1,4.33E2,1.94E2,6.82E2,2.42E2,7E2,1.58E2,3.13E2,1.68E2,9E1,5.3E1,1.3E1,4.2E1,1.15E2,6.6E1,5.8E1,4.5E1,5.24E2,1.92E2,4.34E2,4.5E2,7.3E1,9.1E1,1.04E2,3.1E1,6.24E2,2.63E2,5.46E2,2.04E2,1.42E2,4.2E1,3E1,3.8E1],"tree_param":{"num_deleted":"0","num_feature":"16","num_nodes":"63","size_leaf_vector":"1"}},{"base_weights":[2.2315102E-2,-1.7241316E0,1.6921862E0,-2.0784874E0,3.9005136E-1,1.3691977E0,3.9606616E0,-2.869323E0,-1.1891422E0,-4.3547955E-1,1.0855538E0,5.108024E-1,2.1678767E0,3.015902E0,4.728495E0,-3.3853545E0,-2.5212379E0,-1.539287E0,-7.327723E-1,-1.2023108E0,5.2724683E-1,5.6037354E-1,2.0644293E0,3.4578454E-2,8.3474094E-1,1.7834957E0,2.6366682E0,2.1823406E0,3.5585966E0,4.206418E0,5.798381E0,-1.8267821E-1,-1.368855E-1,-1.351861E-1,-9.400821E-2,-6.544239E-2,-1.0370486E-1,-4.766937E-2,-9.13435E-3,-7.349487E-2,-3.4924503E-2,9.7465E-3,6.7023195E-2,1.046987E-2,5.05441E-2,7.8674495E-2,1.1935013E-1,-1.0325245E-2,3.259955E-2,3.1946685E-2,8.229836E-2,7.707607E-2,1.17743246E-1,1.1939067E-1,1.7135695E-1,8.438671E-2,1.2824956E-1,1.6538556E-1,2.3217833E-1,1.9200449E-1,2.5037184E-1,2.5945088E-1,3.432202E-1],"categories":[],"categories_nodes":[],"categories_segments":[],"categories_sizes":[],"default_left":[0,0,0,0,0,0,0,0,0,0,0,0,0,0,0,0,0,0,0,0,0,0,0,0,0,0,0,0,0,0,0,0,0,0,0,0,0,0,0,0,0,0,0,0,0,0,0,0,0,0,0,0,0,0,0,0,0,0,0,0,0,0,0],"id":1,"left_children":[1,3,5,7,9,11,13,15,17,19,21,23,25,27,29,31,33,35,37,39,41,43,45,47,49,51,53,55,57,59,61,-1,-1,-1,-1,-1,-1,-1,-1,-1,-1,-1,-1,-1,-1,-1,-1,-1,-1,-1,-1,-1,-1,-1,-1,-1,-1,-1,-1,-1,-1,-1,-1],"loss_changes":[2.107931E4,2.6476396E3,2.701872E3,2.1248506E3,2.9214536E2,2.217437E3,3.1943164E2,2.7904004E2,2.2674036E2,1.7264584E2,1.4073093E2,2.4078238E2,2.973037E2,8.6779175E1,1.16367676E2,1.015166E2,1.0722266E2,9.66178E1,7.51886E1,1.6499329E1,2.7844257E1,2.8407627E1,1.1446991E1,9.435534E1,1.465144E2,1.241189E2,1.3994043E2,1.1758209E1,1.8665771E1,3.1535645E1,1.63479E1,0E0,0E0,0E0,0E0,0E0,0E0,0E0,0E0,0E0,0E0,0E0,0E0,0E0,0E0,0E0,0E0,0E0,0E0,0E0,0E0,0E0,0E0,0E0,0E0,0E0,0E0,0E0,0E0,0E0,0E0,0E0,0E0],"parents":[2147483647,0,0,1,1,2,2,3,3,4,4,5,5,6,6,7,7,8,8,9,9,10,10,11,11,12,12,13,13,14,14,15,15,16,16,17,17,18,18,19,19,20,20,21,21,22,22,23,23,24,24,25,25,26,26,27,27,28,28,29,29,30,30],"right_children":[2,4,6,8,10,12,14,16,18,20,22,24,26,28,30,32,34,36,38,40,42,44,46,48,50,52,54,56,58,60,62,-1,-1,-1,-1,-1,-1,-1,-1,-1,-1,-1,-1,-1,-1,-1,-1,-1,-1,-1,-1,-1,-1,-1,-1,-1,-1,-1,-1,-1,-1,-1,-1],"split_conditions":[-3.727751E1,7.7990875E1,9.16457E1,-2.411971E3,-2.5817007E3,2.3910952E3,2.2983655E3,-3.9857122E3,-1.0841255E3,1.7714174E2,1.8571426E2,9.9860626E2,3.8254636E3,1.6337738E2,2.2189105E2,2.0894861E0,6.5595336E0,4.811091E0,8.3655113E-1,-3.5234307E3,2.960403E2,-1.1283583E3,-1.6443469E3,6.1164517E0,1.0803004E1,3.5411797E0,1E0,1.0310042E3,3.056167E2,1E0,1E0,-1.8267821E-1,-1.368855E-1,-1.351861E-1,-9.400821E-2,-6.544239E-2,-1.0370486E-1,-4.766937E-2,-9.13435E-3,-7.349487E-2,-3.4924503E-2,9.7465E-3,6.7023195E-2,1.046987E-2,5.05441E-2,7.8674495E-2,1.1935013E-1,-1.0325245E-2,3.259955E-2,3.1946685E-2,8.229836E-2,7.707607E-2,1.17743246E-1,1.1939067E-1,1.7135695E-1,8.438671E-2,1.2824956E-1,1.6538556E-1,2.3217833E-1,1.9200449E-1,2.5037184E-1,2.5945088E-1,3.432202E-1],"split_indices":[3,0,0,3,3,3,3,3,3,0,0,3,3,0,0,0,0,1,0,3,0,3,3,0,0,0,6,3,0,6,6,0,0,0,0,0,0,0,0,0,0,0,0,0,0,0,0,0,0,0,0,0,0,0,0,0,0,0,0,0,0,0,0],"split_type":[0,0,0,0,0,0,0,0,0,0,0,0,0,0,0,0,0,0,0,0,0,0,0,0,0,0,0,0,0,0,0,0,0,0,0,0,0,0,0,0,0,0,0,0,0,0,0,0,0,0,0,0,0,0,0,0,0,0,0,0,0,0,0],"sum_hessian":[7.226E3,3.532E3,3.694E3,3.025E3,5.07E2,3.235E3,4.59E2,1.6E3,1.425E3,2.32E2,2.75E2,1.56E3,1.675E3,2.08E2,2.51E2,6.41E2,9.59E2,8.05E2,6.2E2,1.29E2,1.03E2,1.8E2,9.5E1,6.32E2,9.28E2,9.23E2,7.52E2,8.4E1,1.24E2,1.72E2,7.9E1,4.5E2,1.91E2,7.44E2,2.15E2,5.65E2,2.4E2,4.42E2,1.78E2,8.3E1,4.6E1,7.4E1,2.9E1,1.02E2,7.8E1,4E1,5.5E1,4.55E2,1.77E2,7.49E2,1.79E2,6.51E2,2.72E2,5.75E2,1.77E2,3.9E1,4.5E1,1.04E2,2E1,1.22E2,5E1,5.4E1,2.5E1],"tree_param":{"num_deleted":"0","num_feature":"16","num_nodes":"63","size_leaf_vector":"1"}},{"base_weights":[2.659739E-3,-1.6440455E0,1.6064224E0,-1.9808171E0,3.7517974E-1,1.2871975E0,3.6339638E0,-2.7295702E0,-1.1376094E0,-3.0391577E-1,1.1111844E0,4.5734617E-1,2.0369983E0,2.8539507E0,4.549758E0,-3.2114942E0,-2.3755403E0,-1.4672996E0,-7.03455E-1,-9.945247E-1,5.9173304E-1,6.806336E-1,2.1506865E0,6.0050193E-2,8.029186E-1,1.6702754E0,2.4887993E0,2.382703E0,3.8015006E0,4.0132504E0,5.4429765E0,-1.7198466E-1,-1.2217754E-1,-1.2801449E-1,-9.205833E-2,-8.128987E-2,-3.8924765E-2,-4.477477E-2,-7.749901E-3,-6.953897E-2,-2.787528E-2,8.54063E-3,6.0302287E-2,1.894578E-2,5.323527E-2,1.2027391E-1,6.6337876E-2,-9.009842E-3,2.943795E-2,3.2271024E-2,7.802033E-2,9.376245E-2,5.2893717E-2,1.3911092E-1,8.528275E-2,9.599066E-2,1.483888E-1,2.1399896E-1,1.311666E-1,2.1650235E-1,1.3796234E-1,3.0075946E-1,1.9895822E-1],"categories":[],"categories_nodes":[],"categories_segments":[],"categories_sizes":[],"default_left":[0,0,0,0,0,0,0,0,0,0,0,0,0,0,0,0,0,0,0,0,0,0,0,0,0,0,0,0,0,0,0,0,0,0,0,0,0,0,0,0,0,0,0,0,0,0,0,0,0,0,0,0,0,0,0,0,0,0,0,0,0,0,0],"id":2,"left_children":[1,3,5,7,9,11,13,15,17,19,21,23,25,27,29,31,33,35,37,39,41,43,45,47,49,51,53,55,57,59,61,-1,-1,-1,-1,-1,-1,-1,-1,-1,-1,-1,-1,-1,-1,-1,-1,-1,-1,-1,-1,-1,-1,-1,-1,-1,-1,-1,-1,-1,-1,-1,-1],"loss_changes":[1.8990887E4,2.4134453E3,2.3532236E3,1.9168447E3,2.5424498E2,1.9584487E3,3.406089E2,2.6706152E2,2.0393933E2,1.645024E2,1.0774042E2,2.0534445E2,2.698877E2,1.11505615E2,8.6458984E1,1.1058594E2,8.729785E1,8.7492676E1,6.516327E1,2.5200287E1,2.9788902E1,1.9759926E1,1.1713562E1,8.863954E1,9.443518E1,1.1299805E2,1.6506885E2,4.386316E1,3.838025E1,4.5655518E1,4.4749023E1,0E0,0E0,0E0,0E0,0E0,0E0,0E0,0E0,0E0,0E0,0E0,0E0,0E0,0E0,0E0,0E0,0E0,0E0,0E0,0E0,0E0,0E0,0E0,0E0,0E0,0E0,0E0,0E0,0E0,0E0,0E0,0E0],"parents":[2147483647,0,0,1,1,2,2,3,3,4,4,5,5,6,6,7,7,8,8,9,9,10,10,11,11,12,12,13,13,14,14,15,15,16,16,17,17,18,18,19,19,20,20,21,21,22,22,23,23,24,24,25,25,26,26,27,27,28,28,29,29,30,30],"right_children":[2,4,6,8,10,12,14,16,18,20,22,24,26,28,30,32,34,36,38,40,42,44,46,48,50,52,54,56,58,60,62,-1,-1,-1,-1,-1,-1,-1,-1,-1,-1,-1,-1,-1,-1,-1,-1,-1,-1,-1,-1,-1,-1,-1,-1,-1,-1,-1,-1,-1,-1,-1,-1],"split_conditions":[-3.727751E1,7.7990875E1,8.311304E1,-2.411971E3,-2.2384429E3,2.3648877E3,2.7192832E3,-3.90644E3,-1.0841255E3,1.8286234E2,2.0022116E2,1.1670605E3,3.8254636E3,2.1762108E2,1.973727E2,1E0,3.3865943E0,1.1506856E1,1.3294973E0,-3.5593638E3,2.5864963E2,1.3969382E2,1E0,2.67231E0,1.0803004E1,1E0,1E0,1.4626777E3,1E0,1E0,1E0,-1.7198466E-1,-1.2217754E-1,-1.2801449E-1,-9.205833E-2,-8.128987E-2,-3.8924765E-2,-4.477477E-2,-7.749901E-3,-6.953897E-2,-2.787528E-2,8.54063E-3,6.0302287E-2,1.894578E-2,5.323527E-2,1.2027391E-1,6.6337876E-2,-9.009842E-3,2.943795E-2,3.2271024E-2,7.802033E-2,9.376245E-2,5.2893717E-2,1.3911092E-1,8.528275E-2,9.599066E-2,1.483888E-1,2.1399896E-1,1.311666E-1,2.1650235E-1,1.3796234E-1,3.0075946E-1,1.9895822E-1],"split_indices":[3,0,0,3,3,3,3,3,3,0,0,3,3,0,0,9,0,0,0,3,0,0,9,0,0,9,9,3,9,9,9,0,0,0,0,0,0,0,0,0,0,0,0,0,0,0,0,0,0,0,0,0,0,0,0,0,0,0,0,0,0,0,0],"split_type":[0,0,0,0,0,0,0,0,0,0,0,0,0,0,0,0,0,0,0,0,0,0,0,0,0,0,0,0,0,0,0,0,0,0,0,0,0,0,0,0,0,0,0,0,0,0,0,0,0,0,0,0,0,0,0,0,0,0,0,0,0,0,0],"sum_hessian":[7.189E3,3.547E3,3.642E3,3.04E3,5.07E2,3.148E3,4.94E2,1.609E3,1.431E3,2.64E2,2.43E2,1.495E3,1.653E3,2.69E2,2.25E2,6.78E2,9.31E2,8.12E2,6.19E2,1.49E2,1.15E2,1.73E2,7E1,6.96E2,7.99E2,9.15E2,7.38E2,1.82E2,8.7E1,1.44E2,8.1E1,5.2E2,1.58E2,6.89E2,2.42E2,6.59E2,1.53E2,4.58E2,1.61E2,7.7E1,7.2E1,6.9E1,4.6E1,9.8E1,7.5E1,5.2E1,1.8E1,4.79E2,2.17E2,6.63E2,1.36E2,6.84E2,2.31E2,5.35E2,2.03E2,1.04E2,7.8E1,6E1,2.7E1,1.13E2,3.1E1,5.6E1,2.5E1],"tree_param":{"num_deleted":"0","num_feature":"16","num_nodes":"63","size_leaf_vector":"1"}},{"base_weights":[-4.491877E-3,-1.4997829E0,1.5703782E0,-2.2921324E0,-6.935944E-1,1.2072152E0,3.1169252E0,-2.6552746E0,-6.233001E-1,-1.0561537E0,8.7143165E-1,4.743526E-1,1.9253962E0,2.2392077E0,3.838561E0,-3.1333187E0,-2.3328018E0,-1.2210197E0,5.053739E-1,-1.4319277E0,-6.516137E-1,4.2636028E-1,1.9232053E0,1.4550334E-1,8.5182804E-1,1.7145702E0,2.585985E0,1.6733899E0,3.2116046E0,3.2074628E0,4.809457E0,-1.4653991E-1,-1.8938011E-1,-1.1078391E-1,-1.544653E-1,-7.638778E-2,-3.662257E-2,8.5368315E-3,6.537094E-2,-6.290112E-2,-1.027509E-1,-2.3557555E-2,-5.7796944E-2,5.120768E-3,4.0217288E-2,7.679495E-2,1.3263221E-1,1.5213917E-2,-2.2143682E-2,5.2583136E-2,1.198323E-2,6.9521494E-2,1.0339699E-1,1.4268301E-1,9.0521485E-2,6.798781E-2,1.07968606E-1,1.3885494E-1,1.8479224E-1,1.370169E-1,1.8673676E-1,2.125967E-1,2.9342148E-1],"categories":[],"categories_nodes":[],"categories_segments":[],"categories_sizes":[],"default_left":[0,0,0,0,0,0,0,0,0,0,0,0,0,0,0,0,0,0,0,0,0,0,0,0,0,0,0,0,0,0,0,0,0,0,0,0,0,0,0,0,0,0,0,0,0,0,0,0,0,0,0,0,0,0,0,0,0,0,0,0,0,0,0],"id":3,"left_children":[1,3,5,7,9,11,13,15,17,19,21,23,25,27,29,31,33,35,37,39,41,43,45,47,49,51,53,55,57,59,61,-1,-1,-1,-1,-1,-1,-1,-1,-1,-1,-1,-1,-1,-1,-1,-1,-1,-1,-1,-1,-1,-1,-1,-1,-1,-1,-1,-1,-1,-1,-1,-1],"loss_changes":[1.6898686E4,2.3497705E3,1.9591992E3,1.123123E3,1.0370194E3,1.489648E3,4.1197754E2,2.2762598E2,2.2526909E2,2.245061E2,1.602113E2,1.7403397E2,1.9472168E2,1.6078601E2,2.0699463E2,6.986035E1,7.413965E1,3.1550812E1,3.0910492E1,8.063428E1,6.461984E1,2.9672115E1,2.4742462E1,7.0292854E1,7.963034E1,1.21630615E2,6.6246826E1,2.6480896E1,1.2880859E1,4.4691162E1,5.8294434E1,0E0,0E0,0E0,0E0,0E0,0E0,0E0,0E0,0E0,0E0,0E0,0E0,0E0,0E0,0E0,0E0,0E0,0E0,0E0,0E0,0E0,0E0,0E0,0E0,0E0,0E0,0E0,0E0,0E0,0E0,0E0,0E0],"parents":[2147483647,0,0,1,1,2,2,3,3,4,4,5,5,6,6,7,7,8,8,9,9,10,10,11,11,12,12,13,13,14,14,15,15,16,16,17,17,18,18,19,19,20,20,21,21,22,22,23,23,24,24,25,25,26,26,27,27,28,28,29,29,30,30],"right_children":[2,4,6,8,10,12,14,16,18,20,22,24,26,28,30,32,34,36,38,40,42,44,46,48,50,52,54,56,58,60,62,-1,-1,-1,-1,-1,-1,-1,-1,-1,-1,-1,-1,-1,-1,-1,-1,-1,-1,-1,-1,-1,-1,-1,-1,-1,-1,-1,-1,-1,-1,-1,-1],"split_conditions":[1.4408115E2,-2.411971E3,4.611736E1,5.6244335E1,5.8141953E1,2.541298E3,2.3344436E3,-3.9857122E3,1.7714174E2,-1.0841255E3,1.7974504E2,1.4991211E3,1E0,1.579274E2,1.4829346E2,7.681619E0,1.1002473E1,-3.5234307E3,2.960403E2,7.748788E0,6.3178515E0,-1.1283583E3,2.75817E2,7.911528E0,8.212824E0,3.8254636E3,6.5920033E0,1.3782487E3,2.3669551E2,3.712679E3,1E0,-1.4653991E-1,-1.8938011E-1,-1.1078391E-1,-1.544653E-1,-7.638778E-2,-3.662257E-2,8.5368315E-3,6.537094E-2,-6.290112E-2,-1.027509E-1,-2.3557555E-2,-5.7796944E-2,5.120768E-3,4.0217288E-2,7.679495E-2,1.3263221E-1,1.5213917E-2,-2.2143682E-2,5.2583136E-2,1.198323E-2,6.9521494E-2,1.0339699E-1,1.4268301E-1,9.0521485E-2,6.798781E-2,1.07968606E-1,1.3885494E-1,1.8479224E-1,1.370169E-1,1.8673676E-1,2.125967E-1,2.9342148E-1],"split_indices":[3,3,0,0,0,3,3,3,0,3,0,3,6,0,0,1,1,3,0,1,1,3,0,1,1,3,1,3,0,3,6,0,0,0,0,0,0,0,0,0,0,0,0,0,0,0,0,0,0,0,0,0,0,0,0,0,0,0,0,0,0,0,0],"split_type":[0,0,0,0,0,0,0,0,0,0,0,0,0,0,0,0,0,0,0,0,0,0,0,0,0,0,0,0,0,0,0,0,0,0,0,0,0,0,0,0,0,0,0,0,0,0,0,0,0,0,0,0,0,0,0,0,0,0,0,0,0,0,0],"sum_hessian":[7.174E3,3.68E3,3.494E3,1.855E3,1.825E3,2.831E3,6.63E2,1.523E3,3.32E2,1.482E3,3.43E2,1.402E3,1.429E3,3.01E2,3.62E2,6.1E2,9.13E2,2.17E2,1.15E2,7.67E2,7.15E2,2.42E2,1.01E2,7.5E2,6.52E2,1.086E3,3.43E2,1.92E2,1.09E2,2.22E2,1.4E2,4.7E2,1.4E2,7.94E2,1.19E2,1.32E2,8.5E1,8.2E1,3.3E1,6.02E2,1.65E2,5.28E2,1.87E2,1.31E2,1.11E2,6.8E1,3.3E1,5.91E2,1.59E2,4.91E2,1.61E2,5.69E2,5.17E2,2.53E2,9E1,1.19E2,7.3E1,6.1E1,4.8E1,1.21E2,1.01E2,9.5E1,4.5E1],"tree_param":{"num_deleted":"0","num_feature":"16","num_nodes":"63","size_leaf_vector":"1"}},{"base_weights":[-7.6785213E-3,-1.4322735E0,1.512083E0,-2.1400015E0,-6.0802686E-1,1.1513172E0,2.9921823E0,-2.4051623E0,-9.702909E-2,-9.457985E-1,8.709684E-1,4.5731664E-1,1.817724E0,2.1145542E0,3.586516E0,-2.8205097E0,-2.0288057E0,-5.538589E-1,8.544706E-1,-1.2299854E0,-5.2112514E-1,4.5253968E-1,1.8829291E0,7.767918E-2,7.469529E-1,1.6050876E0,2.385921E0,1.556813E0,3.0861878E0,3.0502303E0,4.523397E0,-1.515256E-1,-1.03773616E-1,-1.1092974E-1,-7.493525E-2,-4.5893256E-2,-1.5064597E-3,-5.874784E-3,5.6002308E-2,-5.292293E-2,-9.134628E-2,-1.704184E-2,-4.6864595E-2,8.798616E-3,3.9189305E-2,7.700511E-2,1.1692985E-1,1.0377191E-2,-2.47806E-2,4.5705136E-2,8.549029E-3,9.0966366E-2,5.6194134E-2,1.0679137E-1,1.59236E-1,5.86213E-2,9.004582E-2,1.4125983E-1,1.994447E-1,1.384087E-1,1.9107021E-1,2.0138219E-1,2.8028518E-1],"categories":[],"categories_nodes":[],"categories_segments":[],"categories_sizes":[],"default_left":[0,0,0,0,0,0,0,0,0,0,0,0,0,0,0,0,0,0,0,0,0,0,0,0,0,0,0,0,0,0,0,0,0,0,0,0,0,0,0,0,0,0,0,0,0,0,0,0,0,0,0,0,0,0,0,0,0,0,0,0,0,0,0],"id":4,"left_children":[1,3,5,7,9,11,13,15,17,19,21,23,25,27,29,31,33,35,37,39,41,43,45,47,49,51,53,55,57,59,61,-1,-1,-1,-1,-1,-1,-1,-1,-1,-1,-1,-1,-1,-1,-1,-1,-1,-1,-1,-1,-1,-1,-1,-1,-1,-1,-1,-1,-1,-1,-1,-1],"loss_changes":[1.5540691E4,2.1599824E3,1.8510293E3,1.0794072E3,8.5657465E2,1.2913569E3,3.4710742E2,2.7002344E2,1.00448135E2,1.677168E2,1.3422316E2,1.5058276E2,1.6833789E2,1.4530725E2,1.8918652E2,1.24510254E2,9.0138916E1,2.9712322E1,1.9491383E1,8.356287E1,4.1772385E1,2.0657997E1,1.0926331E1,4.4326305E1,7.4648315E1,1.0517236E2,7.0311035E1,1.45903015E1,1.2290466E1,4.597534E1,5.52229E1,0E0,0E0,0E0,0E0,0E0,0E0,0E0,0E0,0E0,0E0,0E0,0E0,0E0,0E0,0E0,0E0,0E0,0E0,0E0,0E0,0E0,0E0,0E0,0E0,0E0,0E0,0E0,0E0,0E0,0E0,0E0,0E0],"parents":[2147483647,0,0,1,1,2,2,3,3,4,4,5,5,6,6,7,7,8,8,9,9,10,10,11,11,12,12,13,13,14,14,15,15,16,16,17,17,18,18,19,19,20,20,21,21,22,22,23,23,24,24,25,25,26,26,27,27,28,28,29,29,30,30],"right_children":[2,4,6,8,10,12,14,16,18,20,22,24,26,28,30,32,34,36,38,40,42,44,46,48,50,52,54,56,58,60,62,-1,-1,-1,-1,-1,-1,-1,-1,-1,-1,-1,-1,-1,-1,-1,-1,-1,-1,-1,-1,-1,-1,-1,-1,-1,-1,-1,-1,-1,-1,-1,-1],"split_conditions":[1.4408115E2,-2.2142935E3,4.611736E1,9.534362E1,5.8141953E1,2.541298E3,2.037226E3,-3.726258E3,2.2189105E2,-7.986371E2,1.8286234E2,1.2627533E3,4.313343E3,1.6337738E2,1.6158868E2,1.0293873E1,2.984674E0,-3.2951067E3,-4.403615E3,7.681619E0,5.2790995E0,1.07333084E2,-8.4570496E2,8.376548E0,8.136447E0,5.684226E0,1E0,8.495209E2,2.75817E2,1E0,1E0,-1.515256E-1,-1.03773616E-1,-1.1092974E-1,-7.493525E-2,-4.5893256E-2,-1.5064597E-3,-5.874784E-3,5.6002308E-2,-5.292293E-2,-9.134628E-2,-1.704184E-2,-4.6864595E-2,8.798616E-3,3.9189305E-2,7.700511E-2,1.1692985E-1,1.0377191E-2,-2.47806E-2,4.5705136E-2,8.549029E-3,9.0966366E-2,5.6194134E-2,1.0679137E-1,1.59236E-1,5.86213E-2,9.004582E-2,1.4125983E-1,1.994447E-1,1.384087E-1,1.9107021E-1,2.0138219E-1,2.8028518E-1],"split_indices":[3,3,0,0,0,3,3,3,0,3,0,3,3,0,0,0,0,3,3,1,1,0,3,1,1,1,6,3,0,6,6,0,0,0,0,0,0,0,0,0,0,0,0,0,0,0,0,0,0,0,0,0,0,0,0,0,0,0,0,0,0,0,0],"split_type":[0,0,0,0,0,0,0,0,0,0,0,0,0,0,0,0,0,0,0,0,0,0,0,0,0,0,0,0,0,0,0,0,0,0,0,0,0,0,0,0,0,0,0,0,0,0,0,0,0,0,0,0,0,0,0,0,0,0,0,0,0,0,0],"sum_hessian":[7.176E3,3.704E3,3.472E3,1.992E3,1.712E3,2.793E3,6.79E2,1.763E3,2.29E2,1.394E3,3.18E2,1.369E3,1.424E3,2.76E2,4.03E2,8.35E2,9.28E2,1.55E2,7.4E1,8.34E2,5.6E2,2.26E2,9.2E1,5.93E2,7.76E2,1.039E3,3.85E2,1.77E2,9.9E1,2.59E2,1.44E2,6.49E2,1.86E2,6.81E2,2.47E2,9.1E1,6.4E1,1.6E1,5.8E1,6.5E2,1.84E2,3.92E2,1.68E2,1.24E2,1.02E2,5.5E1,3.7E1,4.84E2,1.09E2,6.01E2,1.75E2,7.17E2,3.22E2,2.96E2,8.9E1,7.1E1,1.06E2,8E1,1.9E1,1.93E2,6.6E1,1.02E2,4.2E1],"tree_param":{"num_deleted":"0","num_feature":"16","num_nodes":"63","size_leaf_vector":"1"}},{"base_weights":[-7.3393323E-3,1.3733073E0,-1.4045718E0,1.112752E0,3.255068E0,-1.6919214E0,3.200235E-1,1.3160436E0,5.505259E-1,3.5937617E0,2.2431512E0,-1.5291756E0,-2.3218102E0,-7.515161E-2,1.256459E0,1.0227518E0,1.6455001E0,7.350331E-1,2.3178741E-1,3.2284036E0,4.804202E0,1.6073864E0,2.68791E0,-1.6951622E0,-1.1742041E0,-2.509704E0,-1.732239E0,-4.9756896E-1,3.03427E-1,9.194407E-1,1.7054929E0,4.5911726E-2,7.41088E-2,9.1120176E-2,5.0741713E-2,4.230229E-2,1.9784069E-2,-6.5085003E-3,2.0031614E-2,1.7302841E-1,1.2762076E-1,2.6622277E-1,1.8194744E-1,5.6721587E-2,9.227052E-2,1.1297627E-1,1.4755125E-1,-9.143885E-2,-6.454426E-2,-4.87635E-2,-7.350586E-2,-1.445641E-1,-1.13523684E-1,-9.11852E-2,-6.04145E-2,-2.7858485E-2,3.755904E-3,3.2070845E-3,2.0110551E-2,5.5678457E-2,2.0311143E-2,9.658157E-2,4.8333034E-2],"categories":[],"categories_nodes":[],"categories_segments":[],"categories_sizes":[],"default_left":[0,0,0,0,0,0,0,0,0,0,0,0,0,0,0,0,0,0,0,0,0,0,0,0,0,0,0,0,0,0,0,0,0,0,0,0,0,0,0,0,0,0,0,0,0,0,0,0,0,0,0,0,0,0,0,0,0,0,0,0,0,0,0],"id":5,"left_children":[1,3,5,7,9,11,13,15,17,19,21,23,25,27,29,31,33,35,37,39,41,43,45,47,49,51,53,55,57,59,61,-1,-1,-1,-1,-1,-1,-1,-1,-1,-1,-1,-1,-1,-1,-1,-1,-1,-1,-1,-1,-1,-1,-1,-1,-1,-1,-1,-1,-1,-1,-1,-1],"loss_changes":[1.3891337E4,1.7722549E3,1.7741567E3,3.6307886E2,1.4274023E2,3.1095508E2,1.8956308E2,2.2413428E2,4.9641327E1,1.2954639E2,2.7631592E1,1.4183496E2,6.5220215E1,5.7881443E1,2.1434464E1,5.8133057E1,1.20762695E2,1.9857605E1,1.9119923E1,3.1187012E1,2.5485352E1,3.4226685E0,6.585083E-1,8.7362305E1,4.4541504E1,3.6704346E1,5.224457E0,5.878521E0,4.4889736E0,8.414726E0,8.82579E0,0E0,0E0,0E0,0E0,0E0,0E0,0E0,0E0,0E0,0E0,0E0,0E0,0E0,0E0,0E0,0E0,0E0,0E0,0E0,0E0,0E0,0E0,0E0,0E0,0E0,0E0,0E0,0E0,0E0,0E0,0E0,0E0],"parents":[2147483647,0,0,1,1,2,2,3,3,4,4,5,5,6,6,7,7,8,8,9,9,10,10,11,11,12,12,13,13,14,14,15,15,16,16,17,17,18,18,19,19,20,20,21,21,22,22,23,23,24,24,25,25,26,26,27,27,28,28,29,29,30,30],"right_children":[2,4,6,8,10,12,14,16,18,20,22,24,26,28,30,32,34,36,38,40,42,44,46,48,50,52,54,56,58,60,62,-1,-1,-1,-1,-1,-1,-1,-1,-1,-1,-1,-1,-1,-1,-1,-1,-1,-1,-1,-1,-1,-1,-1,-1,-1,-1,-1,-1,-1,-1,-1,-1],"split_conditions":[1E0,9.16457E1,7.7990875E1,6.0883613E0,1E0,7.748788E0,2.0407834E2,5.2037907E0,1.2257668E1,2.4084183E2,1.6158868E2,8.135694E0,1E0,1.2532745E2,2.75817E2,1.4631436E1,1E0,1E0,3.6187582E0,1E0,1E0,4.219186E0,2.3669551E2,1E0,1.1780921E0,4.471363E0,1.1347545E1,1.5133619E1,1.4633917E2,1E0,1E0,4.5911726E-2,7.41088E-2,9.1120176E-2,5.0741713E-2,4.230229E-2,1.9784069E-2,-6.5085003E-3,2.0031614E-2,1.7302841E-1,1.2762076E-1,2.6622277E-1,1.8194744E-1,5.6721587E-2,9.227052E-2,1.1297627E-1,1.4755125E-1,-9.143885E-2,-6.454426E-2,-4.87635E-2,-7.350586E-2,-1.445641E-1,-1.13523684E-1,-9.11852E-2,-6.04145E-2,-2.7858485E-2,3.755904E-3,3.2070845E-3,2.0110551E-2,5.5678457E-2,2.0311143E-2,9.658157E-2,4.8333034E-2],"split_indices":[14,0,0,1,9,1,0,2,1,0,0,2,9,0,0,0,9,9,2,8,8,2,0,9,1,2,2,2,0,9,9,0,0,0,0,0,0,0,0,0,0,0,0,0,0,0,0,0,0,0,0,0,0,0,0,0,0,0,0,0,0,0,0],"split_type":[0,0,0,0,0,0,0,0,0,0,0,0,0,0,0,0,0,0,0,0,0,0,0,0,0,0,0,0,0,0,0,0,0,0,0,0,0,0,0,0,0,0,0,0,0,0,0,0,0,0,0,0,0,0,0,0,0,0,0,0,0,0,0],"sum_hessian":[7.199E3,3.621E3,3.578E3,3.182E3,4.39E2,3.067E3,5.11E2,2.336E3,8.46E2,3.27E2,1.12E2,2.44E3,6.27E2,3.6E2,1.51E2,1.238E3,1.098E3,5.35E2,3.11E2,2.54E2,7.3E1,4.8E1,6.4E1,1.66E3,7.8E2,4.73E2,1.54E2,1.7E2,1.9E2,8.8E1,6.3E1,1.011E3,2.27E2,8.56E2,2.42E2,4.02E2,1.33E2,9.9E1,2.12E2,1.86E2,6.8E1,4.8E1,2.5E1,1.8E1,3E1,2.8E1,3.6E1,1.245E3,4.15E2,4.69E2,3.11E2,1.78E2,2.95E2,1.29E2,2.5E1,1.54E2,1.6E1,5.6E1,1.34E2,6.3E1,2.5E1,4.7E1,1.6E1],"tree_param":{"num_deleted":"0","num_feature":"16","num_nodes":"63","size_leaf_vector":"1"}},{"base_weights":[5.62166E-3,-1.256697E0,1.4034649E0,-2.003227E0,-5.382122E-1,1.0656989E0,2.7114482E0,-2.318561E0,-6.24914E-1,-8.3946174E-1,8.9929557E-1,5.297966E-1,1.79157E0,2.123665E0,3.463786E0,-2.7543063E0,-2.0348885E0,-1.1271842E0,3.426702E-1,-1.2526159E0,-5.523035E-1,5.31061E-1,1.8767674E0,1.9115452E-1,8.738795E-1,2.0209277E0,1.1764464E0,1.5705836E0,2.8316102E0,2.9273345E0,4.3881555E0,-1.4747655E-1,-1.02313414E-1,-1.1088214E-1,-7.583658E-2,-7.330727E-2,-3.7834615E-2,-2.4048844E-3,3.915715E-2,-5.2533783E-2,-8.454711E-2,-1.8834718E-2,-4.817128E-2,1.0646657E-2,4.822446E-2,1.09021835E-1,5.381012E-2,1.4217389E-2,-2.4582941E-2,5.164794E-2,1.657441E-2,1.127149E-1,7.427418E-2,6.602049E-2,4.0378265E-2,5.212949E-2,9.7921684E-2,1.5674506E-1,9.0910636E-2,1.588505E-1,9.5297575E-2,2.4189197E-1,1.543064E-1],"categories":[],"categories_nodes":[],"categories_segments":[],"categories_sizes":[],"default_left":[0,0,0,0,0,0,0,0,0,0,0,0,0,0,0,0,0,0,0,0,0,0,0,0,0,0,0,0,0,0,0,0,0,0,0,0,0,0,0,0,0,0,0,0,0,0,0,0,0,0,0,0,0,0,0,0,0,0,0,0,0,0,0],"id":6,"left_children":[1,3,5,7,9,11,13,15,17,19,21,23,25,27,29,31,33,35,37,39,41,43,45,47,49,51,53,55,57,59,61,-1,-1,-1,-1,-1,-1,-1,-1,-1,-1,-1,-1,-1,-1,-1,-1,-1,-1,-1,-1,-1,-1,-1,-1,-1,-1,-1,-1,-1,-1,-1,-1],"loss_changes":[1.2676338E4,2.0237207E3,1.5031802E3,8.030488E2,8.343736E2,1.0536189E3,3.0175E2,1.8055078E2,1.6853835E2,1.8818396E2,1.1922293E2,1.8172217E2,1.6000903E2,1.5021545E2,1.3839746E2,7.565674E1,8.3377686E1,2.7523376E1,2.052026E1,5.593567E1,6.757428E1,3.3438713E1,1.9776154E1,5.0283066E1,6.6440735E1,1.01240234E2,1.5661865E1,4.3829407E1,4.7164917E1,4.3927612E1,4.9474854E1,0E0,0E0,0E0,0E0,0E0,0E0,0E0,0E0,0E0,0E0,0E0,0E0,0E0,0E0,0E0,0E0,0E0,0E0,0E0,0E0,0E0,0E0,0E0,0E0,0E0,0E0,0E0,0E0,0E0,0E0,0E0,0E0],"parents":[2147483647,0,0,1,1,2,2,3,3,4,4,5,5,6,6,7,7,8,8,9,9,10,10,11,11,12,12,13,13,14,14,15,15,16,16,17,17,18,18,19,19,20,20,21,21,22,22,23,23,24,24,25,25,26,26,27,27,28,28,29,29,30,30],"right_children":[2,4,6,8,10,12,14,16,18,20,22,24,26,28,30,32,34,36,38,40,42,44,46,48,50,52,54,56,58,60,62,-1,-1,-1,-1,-1,-1,-1,-1,-1,-1,-1,-1,-1,-1,-1,-1,-1,-1,-1,-1,-1,-1,-1,-1,-1,-1,-1,-1,-1,-1,-1,-1],"split_conditions":[2.9139804E2,-2.411971E3,3.708806E1,5.152807E1,6.465969E1,3.0374778E3,2.997078E3,-3.9857122E3,1.6689607E2,-1.3076477E3,2.0022116E2,1.7196917E3,1E0,1.3169696E2,1.4829346E2,1E0,1E0,-3.8068198E3,2.3193805E2,4.304497E0,5.448172E0,-8.4570496E2,1E0,1.1241505E1,8.212824E0,5.9319024E0,5.448172E0,1.3782487E3,1E0,1E0,1E0,-1.4747655E-1,-1.02313414E-1,-1.1088214E-1,-7.583658E-2,-7.330727E-2,-3.7834615E-2,-2.4048844E-3,3.915715E-2,-5.2533783E-2,-8.454711E-2,-1.8834718E-2,-4.817128E-2,1.0646657E-2,4.822446E-2,1.09021835E-1,5.381012E-2,1.4217389E-2,-2.4582941E-2,5.164794E-2,1.657441E-2,1.127149E-1,7.427418E-2,6.602049E-2,4.0378265E-2,5.212949E-2,9.7921684E-2,1.5674506E-1,9.0910636E-2,1.588505E-1,9.5297575E-2,2.4189197E-1,1.543064E-1],"split_indices":[3,3,0,0,0,3,3,3,0,3,0,3,9,0,0,9,9,3,0,1,1,3,9,1,1,1,1,3,9,9,9,0,0,0,0,0,0,0,0,0,0,0,0,0,0,0,0,0,0,0,0,0,0,0,0,0,0,0,0,0,0,0,0],"split_type":[0,0,0,0,0,0,0,0,0,0,0,0,0,0,0,0,0,0,0,0,0,0,0,0,0,0,0,0,0,0,0,0,0,0,0,0,0,0,0,0,0,0,0,0,0,0,0,0,0,0,0,0,0,0,0,0,0,0,0,0,0,0,0],"sum_hessian":[7.182E3,3.774E3,3.408E3,1.85E3,1.924E3,2.71E3,6.98E2,1.505E3,3.45E2,1.591E3,3.33E2,1.56E3,1.15E3,3.94E2,3.04E2,5.9E2,9.15E2,2.27E2,1.18E2,6.51E2,9.4E2,2.43E2,9E1,7.87E2,7.73E2,8.36E2,3.14E2,2.23E2,1.71E2,1.95E2,1.09E2,4.6E2,1.3E2,6.74E2,2.41E2,1.17E2,1.1E2,6.3E1,5.5E1,4.48E2,2.03E2,6.6E2,2.8E2,1.41E2,1.02E2,6.4E1,2.6E1,6.93E2,9.4E1,5.97E2,1.76E2,5.8E2,2.56E2,2.24E2,9E1,9.6E1,1.27E2,1.3E2,4.1E1,1.55E2,4E1,7.9E1,3E1],"tree_param":{"num_deleted":"0","num_feature":"16","num_nodes":"63","size_leaf_vector":"1"}},{"base_weights":[1.954831E-3,-1.3528326E0,1.1778803E0,-1.6280574E0,1.4293282E-1,5.078784E-1,1.874867E0,-2.2991195E0,-1.0715407E0,-4.3432572E-1,6.9587386E-1,2.6859158E-1,2.0745904E0,1.6003014E0,3.4120233E0,-2.5011966E0,-1.6806129E0,-1.4538444E0,-7.6472074E-1,-1.1065867E0,9.622854E-2,4.96146E-2,1.1079066E0,-1.1246063E-1,5.6468666E-1,1.6609567E0,2.8969738E0,1.8053992E0,1.0158688E0,3.766571E0,2.418273E0,-1.174127E-1,-1.636679E-1,-7.878595E-2,-1.0675567E-1,-6.394139E-2,-9.70824E-2,-3.0990807E-2,-6.269692E-2,-6.829011E-2,-4.1397873E-2,-1.2579979E-2,2.1432756E-2,-1.1909311E-2,4.6662368E-2,4.500019E-2,9.6544184E-2,-1.3076052E-2,2.3979504E-2,4.051591E-2,1.0772361E-2,9.621044E-2,4.6969045E-2,1.6179734E-1,9.138948E-2,6.930625E-2,1.06461026E-1,3.2521687E-2,6.179991E-2,1.6920201E-1,2.6257393E-1,9.507438E-2,1.4841852E-1],"categories":[],"categories_nodes":[],"categories_segments":[],"categories_sizes":[],"default_left":[0,0,0,0,0,0,0,0,0,0,0,0,0,0,0,0,0,0,0,0,0,0,0,0,0,0,0,0,0,0,0,0,0,0,0,0,0,0,0,0,0,0,0,0,0,0,0,0,0,0,0,0,0,0,0,0,0,0,0,0,0,0,0],"id":7,"left_children":[1,3,5,7,9,11,13,15,17,19,21,23,25,27,29,31,33,35,37,39,41,43,45,47,49,51,53,55,57,59,61,-1,-1,-1,-1,-1,-1,-1,-1,-1,-1,-1,-1,-1,-1,-1,-1,-1,-1,-1,-1,-1,-1,-1,-1,-1,-1,-1,-1,-1,-1,-1,-1],"loss_changes":[1.149602E4,1.3805684E3,1.803001E3,1.055168E3,1.6691936E2,7.38358E2,7.9348096E2,1.5615332E2,1.8070068E2,9.141425E1,7.104181E1,1.9311166E2,8.3971436E1,1.9091016E2,9.165845E1,1.0627637E2,1.1843811E1,5.6339478E1,6.0329895E1,7.030594E0,1.6758184E1,2.6924858E1,2.6151367E1,6.622566E1,8.243561E1,3.1624756E1,2.5253906E1,1.5847925E2,3.2982086E1,1.0094556E2,1.6529694E1,0E0,0E0,0E0,0E0,0E0,0E0,0E0,0E0,0E0,0E0,0E0,0E0,0E0,0E0,0E0,0E0,0E0,0E0,0E0,0E0,0E0,0E0,0E0,0E0,0E0,0E0,0E0,0E0,0E0,0E0,0E0,0E0],"parents":[2147483647,0,0,1,1,2,2,3,3,4,4,5,5,6,6,7,7,8,8,9,9,10,10,11,11,12,12,13,13,14,14,15,15,16,16,17,17,18,18,19,19,20,20,21,21,22,22,23,23,24,24,25,25,26,26,27,27,28,28,29,29,30,30],"right_children":[2,4,6,8,10,12,14,16,18,20,22,24,26,28,30,32,34,36,38,40,42,44,46,48,50,52,54,56,58,60,62,-1,-1,-1,-1,-1,-1,-1,-1,-1,-1,-1,-1,-1,-1,-1,-1,-1,-1,-1,-1,-1,-1,-1,-1,-1,-1,-1,-1,-1,-1,-1,-1],"split_conditions":[-3.2309424E2,7.023627E1,2.3910952E3,-2.9456067E3,1.4633917E2,8.311304E1,7.299207E1,1E0,-1.7697488E3,-2.9095166E3,-3.104489E3,8.937275E2,2.1762108E2,1E0,1E0,9.575193E0,8.376548E0,6.3178515E0,7.407135E0,-3.90644E3,-1.4941206E3,2.960403E2,2.75817E2,1.4272969E1,2.7529185E0,1E0,1E0,3.4659443E3,3.4297231E3,2.4084183E2,1.940597E2,-1.174127E-1,-1.636679E-1,-7.878595E-2,-1.0675567E-1,-6.394139E-2,-9.70824E-2,-3.0990807E-2,-6.269692E-2,-6.829011E-2,-4.1397873E-2,-1.2579979E-2,2.1432756E-2,-1.1909311E-2,4.6662368E-2,4.500019E-2,9.6544184E-2,-1.3076052E-2,2.3979504E-2,4.051591E-2,1.0772361E-2,9.621044E-2,4.6969045E-2,1.6179734E-1,9.138948E-2,6.930625E-2,1.06461026E-1,3.2521687E-2,6.179991E-2,1.6920201E-1,2.6257393E-1,9.507438E-2,1.4841852E-1],"split_indices":[3,0,3,3,0,0,0,9,3,3,3,3,0,9,9,1,1,1,1,3,3,0,0,0,1,9,9,3,3,0,0,0,0,0,0,0,0,0,0,0,0,0,0,0,0,0,0,0,0,0,0,0,0,0,0,0,0,0,0,0,0,0,0],"split_type":[0,0,0,0,0,0,0,0,0,0,0,0,0,0,0,0,0,0,0,0,0,0,0,0,0,0,0,0,0,0,0,0,0,0,0,0,0,0,0,0,0,0,0,0,0,0,0,0,0,0,0,0,0,0,0,0,0,0,0,0,0,0,0],"sum_hessian":[7.214E3,3.352E3,3.862E3,2.831E3,5.21E2,1.97E3,1.892E3,1.282E3,1.549E3,2.55E2,2.66E2,1.71E3,2.6E2,1.607E3,2.85E2,9.64E2,3.18E2,6.88E2,8.61E2,1.12E2,1.43E2,1.04E2,1.62E2,7.48E2,9.62E2,1.75E2,8.5E1,1.188E3,4.19E2,2.08E2,7.7E1,8.08E2,1.56E2,2.62E2,5.6E1,5.09E2,1.79E2,6.66E2,1.95E2,5.6E1,5.6E1,7E1,7.3E1,7.9E1,2.5E1,1.31E2,3.1E1,5.98E2,1.5E2,5.64E2,3.98E2,1.27E2,4.8E1,6.3E1,2.2E1,5.2E2,6.68E2,1.59E2,2.6E2,1.68E2,4E1,4.2E1,3.5E1],"tree_param":{"num_deleted":"0","num_feature":"16","num_nodes":"63","size_leaf_vector":"1"}},{"base_weights":[-2.0337135E-3,1.1800798E0,-1.2022219E0,1.6527549E0,7.1216583E-1,-7.017242E-1,-1.6797614E0,1.4386498E0,2.2699294E0,6.124479E-1,1.3960077E0,-9.7881705E-1,-4.5056152E-1,-1.8228102E0,-1.2390379E0,1.2345612E0,1.8569856E0,1.2170787E0,2.352604E0,7.592918E-1,2.636025E-1,1.7432636E0,9.8497087E-1,-1.0733212E0,-8.4013075E-1,-3.8852018E-1,-6.497022E-1,-1.6723385E0,-2.3717709E0,-1.1588403E0,-1.6849724E0,4.93233E-2,7.266648E-2,4.8996646E-2,9.975984E-2,8.000708E-2,5.0410148E-2,1.04399875E-1,1.3080493E-1,3.2003086E-2,5.672095E-2,1.6682042E-2,-1.2405821E-2,7.5095385E-2,1.1005586E-1,5.6561764E-2,2.4943152E-2,-5.8269113E-2,-4.1761506E-2,-4.364178E-2,-1.4854657E-2,-4.9581245E-2,-1.8611198E-2,-2.698215E-2,-4.5023117E-2,-8.996017E-2,-6.2335033E-2,-1.2797284E-1,-9.738626E-2,-6.15427E-2,-4.156174E-2,-9.1102436E-2,-6.2138863E-2],"categories":[],"categories_nodes":[],"categories_segments":[],"categories_sizes":[],"default_left":[0,0,0,0,0,0,0,0,0,0,0,0,0,0,0,0,0,0,0,0,0,0,0,0,0,0,0,0,0,0,0,0,0,0,0,0,0,0,0,0,0,0,0,0,0,0,0,0,0,0,0,0,0,0,0,0,0,0,0,0,0,0,0],"id":8,"left_children":[1,3,5,7,9,11,13,15,17,19,21,23,25,27,29,31,33,35,37,39,41,43,45,47,49,51,53,55,57,59,61,-1,-1,-1,-1,-1,-1,-1,-1,-1,-1,-1,-1,-1,-1,-1,-1,-1,-1,-1,-1,-1,-1,-1,-1,-1,-1,-1,-1,-1,-1,-1,-1],"loss_changes":[1.0284581E4,8.0654004E2,8.5853076E2,2.3670117E2,1.24412415E2,1.2190765E2,1.1374414E2,1.13052734E2,3.769922E1,8.2017334E1,3.1540192E1,1.0042236E1,1.1163559E1,1.10604004E2,1.4283752E1,4.801111E1,5.1502197E1,1.267189E0,2.458789E1,4.977008E1,1.7178429E1,1.0507355E1,7.1856003E0,9.832642E0,5.8323364E0,6.579529E0,5.5305405E0,5.672339E1,1.8572632E1,8.130554E0,1.7967682E0,0E0,0E0,0E0,0E0,0E0,0E0,0E0,0E0,0E0,0E0,0E0,0E0,0E0,0E0,0E0,0E0,0E0,0E0,0E0,0E0,0E0,0E0,0E0,0E0,0E0,0E0,0E0,0E0,0E0,0E0,0E0,0E0],"parents":[2147483647,0,0,1,1,2,2,3,3,4,4,5,5,6,6,7,7,8,8,9,9,10,10,11,11,12,12,13,13,14,14,15,15,16,16,17,17,18,18,19,19,20,20,21,21,22,22,23,23,24,24,25,25,26,26,27,27,28,28,29,29,30,30],"right_children":[2,4,6,8,10,12,14,16,18,20,22,24,26,28,30,32,34,36,38,40,42,44,46,48,50,52,54,56,58,60,62,-1,-1,-1,-1,-1,-1,-1,-1,-1,-1,-1,-1,-1,-1,-1,-1,-1,-1,-1,-1,-1,-1,-1,-1,-1,-1,-1,-1,-1,-1,-1,-1],"split_conditions":[1E0,2.1305917E-2,9.808181E-3,1E0,1.3231372E1,5.0120387E0,1E0,1E0,5.8282995E-1,9.432102E0,5.846516E0,2.4284818E0,1E0,1.0773055E1,1.2946835E1,5.138826E0,1.0566782E0,5.144713E1,1E0,1E0,1.7031424E1,1E0,1E0,1E0,7.258933E1,4.0813446E1,6.2392815E1,9.905232E0,1E0,1.1347545E1,7.946456E0,4.93233E-2,7.266648E-2,4.8996646E-2,9.975984E-2,8.000708E-2,5.0410148E-2,1.04399875E-1,1.3080493E-1,3.2003086E-2,5.672095E-2,1.6682042E-2,-1.2405821E-2,7.5095385E-2,1.1005586E-1,5.6561764E-2,2.4943152E-2,-5.8269113E-2,-4.1761506E-2,-4.364178E-2,-1.4854657E-2,-4.9581245E-2,-1.8611198E-2,-2.698215E-2,-4.5023117E-2,-8.996017E-2,-6.2335033E-2,-1.2797284E-1,-9.738626E-2,-6.15427E-2,-4.156174E-2,-9.1102436E-2,-6.2138863E-2],"split_indices":[14,1,1,6,2,2,9,7,2,1,1,2,6,1,1,2,2,4,12,6,1,6,9,9,4,4,4,2,8,2,2,0,0,0,0,0,0,0,0,0,0,0,0,0,0,0,0,0,0,0,0,0,0,0,0,0,0,0,0,0,0,0,0],"split_type":[0,0,0,0,0,0,0,0,0,0,0,0,0,0,0,0,0,0,0,0,0,0,0,0,0,0,0,0,0,0,0,0,0,0,0,0,0,0,0,0,0,0,0,0,0,0,0,0,0,0,0,0,0,0,0,0,0,0,0,0,0,0,0],"sum_hessian":[7.247E3,3.651E3,3.596E3,1.815E3,1.836E3,1.757E3,1.839E3,1.35E3,4.65E2,1.604E3,2.32E2,8.34E2,9.23E2,1.386E3,4.53E2,9.1E2,4.4E2,3.5E1,4.3E2,1.128E3,4.76E2,1.24E2,1.08E2,4.92E2,3.42E2,7.06E2,2.17E2,1.091E3,2.95E2,3.87E2,6.6E1,4.29E2,4.81E2,6.1E1,3.79E2,1E1,2.5E1,2.19E2,2.11E2,8.58E2,2.7E2,4.19E2,5.7E1,8.4E1,4E1,8.2E1,2.6E1,3.52E2,1.4E2,3.22E2,2E1,1.7E1,6.89E2,1.53E2,6.4E1,8.38E2,2.53E2,2.01E2,9.4E1,3.15E2,7.2E1,4.8E1,1.8E1],"tree_param":{"num_deleted":"0","num_feature":"16","num_nodes":"63","size_leaf_vector":"1"}},{"base_weights":[3.637581E-4,-1.2950577E0,1.0177339E0,-1.5099545E0,3.8223022E-1,3.9751384E-1,1.7278593E0,-2.113957E0,-1.010233E0,-2.0661248E-1,7.962365E-1,2.0944811E-1,2.1478689E0,1.4868739E0,3.250159E0,-2.2969642E0,-1.5640452E0,-1.3682917E0,-7.354791E-1,-5.7354546E-1,5.3138566E-1,4.631806E-1,1.4195042E0,-1.262913E-1,5.129909E-1,1.8270359E0,2.8104632E0,1.6869559E0,9.266295E-1,3.5928423E0,2.2931695E0,-1.2407007E-1,-8.435181E-2,-8.372997E-2,-5.2423734E-2,-7.522847E-2,-3.984657E-2,-4.504864E-2,-1.425822E-2,-3.561802E-2,-1.1294933E-2,-4.5435745E-3,3.7623625E-2,1.6003283E-2,4.5659214E-2,8.025541E-2,4.7311492E-2,-1.4801088E-2,2.3212932E-2,1.83345E-2,5.763811E-2,1.03193425E-1,5.3289354E-2,1.5147452E-1,9.683297E-2,6.350779E-2,9.991506E-2,3.5347156E-2,6.08441E-2,1.6088128E-1,2.4409716E-1,8.983666E-2,1.3829814E-1],"categories":[],"categories_nodes":[],"categories_segments":[],"categories_sizes":[],"default_left":[0,0,0,0,0,0,0,0,0,0,0,0,0,0,0,0,0,0,0,0,0,0,0,0,0,0,0,0,0,0,0,0,0,0,0,0,0,0,0,0,0,0,0,0,0,0,0,0,0,0,0,0,0,0,0,0,0,0,0,0,0,0,0],"id":9,"left_children":[1,3,5,7,9,11,13,15,17,19,21,23,25,27,29,31,33,35,37,39,41,43,45,47,49,51,53,55,57,59,61,-1,-1,-1,-1,-1,-1,-1,-1,-1,-1,-1,-1,-1,-1,-1,-1,-1,-1,-1,-1,-1,-1,-1,-1,-1,-1,-1,-1,-1,-1,-1,-1],"loss_changes":[9.449509E3,1.1374165E3,1.7680962E3,8.4178906E2,8.76832E1,7.05645E2,6.8191406E2,1.23714355E2,1.4970874E2,4.065335E1,4.3142532E1,1.9756885E2,3.9082214E1,1.7980615E2,7.538696E1,1.0234473E2,1.6426697E1,5.050244E1,6.450467E1,4.664936E0,6.9470215E0,8.659637E0,4.893631E0,9.245323E1,9.4861176E1,2.3581635E1,6.7644653E0,1.520166E2,2.6430939E1,7.42583E1,1.1460144E1,0E0,0E0,0E0,0E0,0E0,0E0,0E0,0E0,0E0,0E0,0E0,0E0,0E0,0E0,0E0,0E0,0E0,0E0,0E0,0E0,0E0,0E0,0E0,0E0,0E0,0E0,0E0,0E0,0E0,0E0,0E0,0E0],"parents":[2147483647,0,0,1,1,2,2,3,3,4,4,5,5,6,6,7,7,8,8,9,9,10,10,11,11,12,12,13,13,14,14,15,15,16,16,17,17,18,18,19,19,20,20,21,21,22,22,23,23,24,24,25,25,26,26,27,27,28,28,29,29,30,30],"right_children":[2,4,6,8,10,12,14,16,18,20,22,24,26,28,30,32,34,36,38,40,42,44,46,48,50,52,54,56,58,60,62,-1,-1,-1,-1,-1,-1,-1,-1,-1,-1,-1,-1,-1,-1,-1,-1,-1,-1,-1,-1,-1,-1,-1,-1,-1,-1,-1,-1,-1,-1,-1,-1],"split_conditions":[-5.682465E2,1.01757866E2,2.3910952E3,-3.0519495E3,-2.9740642E3,1.2782778E2,8.311304E1,1E0,-1.9841844E3,2.2189105E2,2.1271205E2,8.495209E2,2.3669551E2,1E0,1E0,8.593267E0,2.162483E1,9.179119E0,3.957419E0,-3.5234307E3,-4.403615E3,-1.2087056E3,1E0,1.4272969E1,1.7640182E1,1E0,1E0,3.4659443E3,3.8968608E3,2.4084183E2,1.940597E2,-1.2407007E-1,-8.435181E-2,-8.372997E-2,-5.2423734E-2,-7.522847E-2,-3.984657E-2,-4.504864E-2,-1.425822E-2,-3.561802E-2,-1.1294933E-2,-4.5435745E-3,3.7623625E-2,1.6003283E-2,4.5659214E-2,8.025541E-2,4.7311492E-2,-1.4801088E-2,2.3212932E-2,1.83345E-2,5.763811E-2,1.03193425E-1,5.3289354E-2,1.5147452E-1,9.683297E-2,6.350779E-2,9.991506E-2,3.5347156E-2,6.08441E-2,1.6088128E-1,2.4409716E-1,8.983666E-2,1.3829814E-1],"split_indices":[3,0,3,3,3,0,0,9,3,0,0,3,0,9,9,0,0,0,0,3,3,3,9,0,0,9,9,3,3,0,0,0,0,0,0,0,0,0,0,0,0,0,0,0,0,0,0,0,0,0,0,0,0,0,0,0,0,0,0,0,0,0,0],"split_type":[0,0,0,0,0,0,0,0,0,0,0,0,0,0,0,0,0,0,0,0,0,0,0,0,0,0,0,0,0,0,0,0,0,0,0,0,0,0,0,0,0,0,0,0,0,0,0,0,0,0,0,0,0,0,0,0,0,0,0,0,0,0,0],"sum_hessian":[7.168E3,3.153E3,4.015E3,2.795E3,3.58E2,2.144E3,1.871E3,1.264E3,1.531E3,1.48E2,2.1E2,1.937E3,2.07E2,1.617E3,2.54E2,9.46E2,3.18E2,6.63E2,8.68E2,9.9E1,4.9E1,1.38E2,7.2E1,9.2E2,1.017E3,1.42E2,6.5E1,1.19E3,4.27E2,1.85E2,6.9E1,7.24E2,2.22E2,2.6E2,5.8E1,5.34E2,1.29E2,6.34E2,2.34E2,7E1,2.9E1,1.3E1,3.6E1,1.06E2,3.2E1,5E1,2.2E1,7.15E2,2.05E2,8.29E2,1.88E2,1.07E2,3.5E1,5E1,1.5E1,5.11E2,6.79E2,2.45E2,1.82E2,1.46E2,3.9E1,3.6E1,3.3E1],"tree_param":{"num_deleted":"0","num_feature":"16","num_nodes":"63","size_leaf_vector":"1"}},{"base_weights":[3.86197E-3,-1.020211E0,1.1529835E0,-1.5906343E0,-3.5565522E-1,6.10115E-1,1.7158085E0,-1.1425956E0,-2.0082293E0,4.844032E-2,-7.616578E-1,1.0279632E0,2.0021984E-1,2.1785426E0,1.2637018E0,-1.5264716E0,-7.7470076E-1,-2.455995E0,-1.6890801E0,-2.993741E-1,2.862206E-1,-9.9180275E-1,-4.576537E-1,7.4467754E-1,1.3237892E0,-1.0566383E-1,4.3482107E-1,1.9116809E0,2.9762836E0,1.4522384E0,7.4191386E-1,-8.518538E-2,-6.1684247E-2,-5.6862224E-2,-2.7620668E-2,-1.3222626E-1,-9.022444E-2,-9.165877E-2,-6.2897995E-2,-2.9412223E-2,-2.9543273E-3,-2.8948474E-3,2.6180763E-2,-4.1351523E-2,-6.420464E-2,-1.859896E-2,-4.6196356E-2,2.7221957E-2,4.744516E-2,5.4876026E-2,9.419977E-2,-1.0716498E-3,-3.7228264E-2,2.7430056E-2,-1.7082802E-3,8.22928E-2,1.2378933E-1,9.828224E-2,1.5700884E-1,5.927644E-2,9.383314E-2,2.4950728E-2,4.678675E-2],"categories":[],"categories_nodes":[],"categories_segments":[],"categories_sizes":[],"default_left":[0,0,0,0,0,0,0,0,0,0,0,0,0,0,0,0,0,0,0,0,0,0,0,0,0,0,0,0,0,0,0,0,0,0,0,0,0,0,0,0,0,0,0,0,0,0,0,0,0,0,0,0,0,0,0,0,0,0,0,0,0,0,0],"id":10,"left_children":[1,3,5,7,9,11,13,15,17,19,21,23,25,27,29,31,33,35,37,39,41,43,45,47,49,51,53,55,57,59,61,-1,-1,-1,-1,-1,-1,-1,-1,-1,-1,-1,-1,-1,-1,-1,-1,-1,-1,-1,-1,-1,-1,-1,-1,-1,-1,-1,-1,-1,-1,-1,-1],"loss_changes":[8.425776E3,1.4346235E3,1.0298452E3,3.7882568E2,2.8714856E2,2.942141E2,3.4369092E2,1.3792505E2,1.4632959E2,7.269928E1,6.062555E1,7.033087E1,6.240598E1,1.6823828E2,8.155859E1,2.2858276E1,4.0069183E1,4.8781494E1,3.608545E1,2.4745304E1,4.2673363E1,2.2825989E1,1.4756554E1,1.7353973E1,5.05365E1,2.0326187E1,2.6272507E1,8.814673E1,2.745166E1,6.750513E1,1.0125839E1,0E0,0E0,0E0,0E0,0E0,0E0,0E0,0E0,0E0,0E0,0E0,0E0,0E0,0E0,0E0,0E0,0E0,0E0,0E0,0E0,0E0,0E0,0E0,0E0,0E0,0E0,0E0,0E0,0E0,0E0,0E0,0E0],"parents":[2147483647,0,0,1,1,2,2,3,3,4,4,5,5,6,6,7,7,8,8,9,9,10,10,11,11,12,12,13,13,14,14,15,15,16,16,17,17,18,18,19,19,20,20,21,21,22,22,23,23,24,24,25,25,26,26,27,27,28,28,29,29,30,30],"right_children":[2,4,6,8,10,12,14,16,18,20,22,24,26,28,30,32,34,36,38,40,42,44,46,48,50,52,54,56,58,60,62,-1,-1,-1,-1,-1,-1,-1,-1,-1,-1,-1,-1,-1,-1,-1,-1,-1,-1,-1,-1,-1,-1,-1,-1,-1,-1,-1,-1,-1,-1,-1,-1],"split_conditions":[2.9139804E2,-2.1224675E3,2.7192832E3,9.808181E-3,9.808181E-3,2.1305917E-2,9.808181E-3,-3.6433357E3,-3.8068198E3,3.7116818E0,-7.617728E2,1.4991211E3,1.4626777E3,1E0,1E0,8.204919E0,3.4138012E0,1E0,1E0,-1.1283583E3,-1.1628452E3,7.911528E0,1.2016364E1,5.669413E0,1E0,1.3777336E1,1.1595449E1,1E0,1.0071795E0,4.143278E3,3.7843442E3,-8.518538E-2,-6.1684247E-2,-5.6862224E-2,-2.7620668E-2,-1.3222626E-1,-9.022444E-2,-9.165877E-2,-6.2897995E-2,-2.9412223E-2,-2.9543273E-3,-2.8948474E-3,2.6180763E-2,-4.1351523E-2,-6.420464E-2,-1.859896E-2,-4.6196356E-2,2.7221957E-2,4.744516E-2,5.4876026E-2,9.419977E-2,-1.0716498E-3,-3.7228264E-2,2.7430056E-2,-1.7082802E-3,8.22928E-2,1.2378933E-1,9.828224E-2,1.5700884E-1,5.927644E-2,9.383314E-2,2.4950728E-2,4.678675E-2],"split_indices":[3,3,3,1,1,1,1,3,3,2,3,3,3,6,9,2,2,9,9,3,3,1,1,2,6,1,1,7,2,3,3,0,0,0,0,0,0,0,0,0,0,0,0,0,0,0,0,0,0,0,0,0,0,0,0,0,0,0,0,0,0,0,0],"split_type":[0,0,0,0,0,0,0,0,0,0,0,0,0,0,0,0,0,0,0,0,0,0,0,0,0,0,0,0,0,0,0,0,0,0,0,0,0,0,0,0,0,0,0,0,0,0,0,0,0,0,0,0,0,0,0,0,0,0,0,0,0,0,0],"sum_hessian":[7.158E3,3.785E3,3.373E3,2.036E3,1.749E3,1.718E3,1.655E3,9.84E2,1.052E3,8.77E2,8.72E2,8.5E2,8.68E2,8.16E2,8.39E2,4.8E2,5.04E2,4.35E2,6.17E2,3.56E2,5.21E2,4.95E2,3.77E2,4.36E2,4.14E2,3.77E2,4.91E2,6.14E2,2.02E2,6.15E2,2.24E2,2.96E2,1.84E2,1.9E2,3.14E2,3.35E2,1E2,4.6E2,1.57E2,1.61E2,1.95E2,2.13E2,3.08E2,3.19E2,1.76E2,3.2E2,5.7E1,2.22E2,2.14E2,2.97E2,1.17E2,3.34E2,4.3E1,3.95E2,9.6E1,4.2E2,1.94E2,3E1,1.72E2,3.8E2,2.35E2,1.01E2,1.23E2],"tree_param":{"num_deleted":"0","num_feature":"16","num_nodes":"63","size_leaf_vector":"1"}},{"base_weights":[-9.4692636E-4,-9.713226E-1,1.1087146E0,-1.5994203E0,-4.1167688E-1,8.7282735E-1,2.4427414E0,-1.7918941E0,5.0089553E-2,-6.781307E-1,6.873914E-1,4.32066E-1,1.4631656E0,1.9367613E0,3.1534789E0,-2.130373E0,-1.5146388E0,-3.4295952E-1,7.287874E-1,-9.980345E-1,-4.2307767E-1,3.6502334E-1,1.5466447E0,1.568335E-1,7.2517127E-1,1.2835494E0,2.00971E0,1.3940403E0,2.5354266E0,2.829948E0,4.1192374E0,-9.693239E-2,-1.3490081E-1,-6.918401E-2,-1.0096788E-1,-2.8128756E-2,6.661065E-3,-6.5219274E-4,4.656711E-2,-4.284772E-2,-6.5386854E-2,-1.566238E-2,-4.294429E-2,3.4059535E-3,3.3278912E-2,4.935728E-2,9.006876E-2,2.4929394E-3,3.3222113E-2,2.9534569E-2,6.2633745E-2,5.498112E-2,8.558062E-2,1.1010557E-1,6.254804E-2,5.2776903E-2,8.772879E-2,1.1152323E-1,1.5648347E-1,1.2715699E-1,1.720105E-1,8.403268E-2,2.0929158E-1],"categories":[],"categories_nodes":[],"categories_segments":[],"categories_sizes":[],"default_left":[0,0,0,0,0,0,0,0,0,0,0,0,0,0,0,0,0,0,0,0,0,0,0,0,0,0,0,0,0,0,0,0,0,0,0,0,0,0,0,0,0,0,0,0,0,0,0,0,0,0,0,0,0,0,0,0,0,0,0,0,0,0,0],"id":11,"left_children":[1,3,5,7,9,11,13,15,17,19,21,23,25,27,29,31,33,35,37,39,41,43,45,47,49,51,53,55,57,59,61,-1,-1,-1,-1,-1,-1,-1,-1,-1,-1,-1,-1,-1,-1,-1,-1,-1,-1,-1,-1,-1,-1,-1,-1,-1,-1,-1,-1,-1,-1,-1,-1],"loss_changes":[7.7507246E3,1.3491484E3,1.054563E3,5.744243E2,5.955392E2,7.422339E2,1.7514062E2,1.4880176E2,5.0934643E1,1.3306305E2,1.094028E2,1.3186578E2,1.17186035E2,9.296326E1,5.3332764E1,7.389014E1,5.629663E1,1.2728731E1,1.0530449E1,3.055664E1,4.3383698E1,2.5833115E1,1.3614105E1,4.5851463E1,5.544348E1,7.063025E1,4.1040527E1,1.7430634E1,1.8390442E1,1.9080566E1,1.0847778E0,0E0,0E0,0E0,0E0,0E0,0E0,0E0,0E0,0E0,0E0,0E0,0E0,0E0,0E0,0E0,0E0,0E0,0E0,0E0,0E0,0E0,0E0,0E0,0E0,0E0,0E0,0E0,0E0,0E0,0E0,0E0,0E0],"parents":[2147483647,0,0,1,1,2,2,3,3,4,4,5,5,6,6,7,7,8,8,9,9,10,10,11,11,12,12,13,13,14,14,15,15,16,16,17,17,18,18,19,19,20,20,21,21,22,22,23,23,24,24,25,25,26,26,27,27,28,28,29,29,30,30],"right_children":[2,4,6,8,10,12,14,16,18,20,22,24,26,28,30,32,34,36,38,40,42,44,46,48,50,52,54,56,58,60,62,-1,-1,-1,-1,-1,-1,-1,-1,-1,-1,-1,-1,-1,-1,-1,-1,-1,-1,-1,-1,-1,-1,-1,-1,-1,-1,-1,-1,-1,-1,-1,-1],"split_conditions":[3.2528976E2,-2.4875742E3,7.1940895E1,1.0567265E2,5.359426E1,3.0374778E3,2.997078E3,-3.90644E3,2.2189105E2,-1.2411572E3,1.8571426E2,1.7568062E3,1E0,1.579274E2,2.4084183E2,1E0,7.681619E0,-3.2951067E3,-4.2546987E3,4.73695E0,8.440981E0,-1.1283583E3,-1.6868159E3,1.2403231E1,8.18286E0,1E0,8.601144E0,1.6600023E3,1E0,1E0,4.0906162E1,-9.693239E-2,-1.3490081E-1,-6.918401E-2,-1.0096788E-1,-2.8128756E-2,6.661065E-3,-6.5219274E-4,4.656711E-2,-4.284772E-2,-6.5386854E-2,-1.566238E-2,-4.294429E-2,3.4059535E-3,3.3278912E-2,4.935728E-2,9.006876E-2,2.4929394E-3,3.3222113E-2,2.9534569E-2,6.2633745E-2,5.498112E-2,8.558062E-2,1.1010557E-1,6.254804E-2,5.2776903E-2,8.772879E-2,1.1152323E-1,1.5648347E-1,1.2715699E-1,1.720105E-1,8.403268E-2,2.0929158E-1],"split_indices":[3,3,0,0,0,3,3,3,0,3,0,3,6,0,0,6,1,3,3,1,1,3,3,2,0,7,1,3,6,6,4,0,0,0,0,0,0,0,0,0,0,0,0,0,0,0,0,0,0,0,0,0,0,0,0,0,0,0,0,0,0,0,0],"split_type":[0,0,0,0,0,0,0,0,0,0,0,0,0,0,0,0,0,0,0,0,0,0,0,0,0,0,0,0,0,0,0,0,0,0,0,0,0,0,0,0,0,0,0,0,0,0,0,0,0,0,0,0,0,0,0,0,0,0,0,0,0,0,0],"sum_hessian":[7.196E3,3.839E3,3.357E3,1.808E3,2.031E3,2.854E3,5.03E2,1.619E3,1.89E2,1.635E3,3.96E2,1.635E3,1.219E3,2.96E2,2.07E2,7.26E2,8.93E2,1.2E2,6.9E1,7.24E2,9.11E2,2.89E2,1.07E2,8.44E2,7.91E2,9.2E2,2.99E2,1.57E2,1.39E2,1.58E2,4.9E1,5.46E2,1.8E2,7.12E2,1.81E2,8.2E1,3.8E1,1.5E1,5.4E1,5E2,2.24E2,7.29E2,1.82E2,1.46E2,1.43E2,3.5E1,7.2E1,6.98E2,1.46E2,6.32E2,1.59E2,6.46E2,2.74E2,2.37E2,6.2E1,8.3E1,7.4E1,9.5E1,4.4E1,1.11E2,4.7E1,2E0,4.7E1],"tree_param":{"num_deleted":"0","num_feature":"16","num_nodes":"63","size_leaf_vector":"1"}},{"base_weights":[-7.531162E-4,-1.1248819E0,8.586323E-1,-1.3148129E0,4.0495396E-1,3.3080193E-1,1.4647839E0,-1.8250195E0,-8.829043E-1,1.1002614E-1,1.0808356E0,1.6657345E-1,1.8925403E0,1.2423031E0,2.7885985E0,-1.9927989E0,-1.3035219E0,-1.1438112E0,-6.155764E-1,-3.5598388E-1,5.0106466E-1,3.703203E-1,1.3734796E0,-7.642091E-2,4.6608782E-1,2.138297E0,1.1334723E0,1.0653901E0,1.7564472E0,3.0966306E0,1.9022548E0,-9.3301795E-2,-1.36809E-1,-7.039314E-2,-4.1523173E-2,-6.253009E-2,-2.6291026E-2,-3.7140626E-2,-5.2112252E-3,-3.075844E-2,-8.154831E-3,3.421056E-2,9.838451E-3,6.2050964E-3,4.4979524E-2,7.6735824E-2,4.307022E-2,-1.1004846E-2,2.1651099E-2,1.7113514E-2,5.2892562E-2,8.794218E-2,1.3281399E-1,3.573696E-2,7.704104E-2,4.5955267E-2,7.625718E-2,9.822103E-2,5.687461E-2,1.3804601E-1,2.1696904E-1,7.587339E-2,1.1739212E-1],"categories":[],"categories_nodes":[],"categories_segments":[],"categories_sizes":[],"default_left":[0,0,0,0,0,0,0,0,0,0,0,0,0,0,0,0,0,0,0,0,0,0,0,0,0,0,0,0,0,0,0,0,0,0,0,0,0,0,0,0,0,0,0,0,0,0,0,0,0,0,0,0,0,0,0,0,0,0,0,0,0,0,0],"id":12,"left_children":[1,3,5,7,9,11,13,15,17,19,21,23,25,27,29,31,33,35,37,39,41,43,45,47,49,51,53,55,57,59,61,-1,-1,-1,-1,-1,-1,-1,-1,-1,-1,-1,-1,-1,-1,-1,-1,-1,-1,-1,-1,-1,-1,-1,-1,-1,-1,-1,-1,-1,-1,-1,-1],"loss_changes":[6.9701216E3,9.0883374E2,1.3077712E3,6.112168E2,6.885144E1,5.606107E2,5.570134E2,1.0887256E2,1.0447534E2,4.4277515E1,2.1323807E1,1.4414062E2,3.637793E1,1.4648218E2,6.8644775E1,8.5546875E1,1.4280273E1,4.9631104E1,4.852423E1,5.448945E0,7.221821E0,4.0584726E0,4.787842E0,8.017032E1,6.462901E1,2.5989868E1,7.938942E0,8.038013E1,5.1315674E1,7.187744E1,8.953522E0,0E0,0E0,0E0,0E0,0E0,0E0,0E0,0E0,0E0,0E0,0E0,0E0,0E0,0E0,0E0,0E0,0E0,0E0,0E0,0E0,0E0,0E0,0E0,0E0,0E0,0E0,0E0,0E0,0E0,0E0,0E0,0E0],"parents":[2147483647,0,0,1,1,2,2,3,3,4,4,5,5,6,6,7,7,8,8,9,9,10,10,11,11,12,12,13,13,14,14,15,15,16,16,17,17,18,18,19,19,20,20,21,21,22,22,23,23,24,24,25,25,26,26,27,27,28,28,29,29,30,30],"right_children":[2,4,6,8,10,12,14,16,18,20,22,24,26,28,30,32,34,36,38,40,42,44,46,48,50,52,54,56,58,60,62,-1,-1,-1,-1,-1,-1,-1,-1,-1,-1,-1,-1,-1,-1,-1,-1,-1,-1,-1,-1,-1,-1,-1,-1,-1,-1,-1,-1,-1,-1,-1,-1],"split_conditions":[-6.526684E2,1.03733505E2,2.3910952E3,-3.0519495E3,2.3193805E2,1.2782778E2,7.7990875E1,1E0,-1.816364E3,-2.8539084E3,-3.6433357E3,1.1232736E3,1E0,4.313343E3,1E0,9.821809E0,2.4275955E1,2.313676E1,1.1822024E1,-3.9502932E3,1E0,3.325967E2,1E0,1.4272969E1,1.7640182E1,2.1762108E2,2.0407834E2,1E0,1E0,2.4084183E2,1.940597E2,-9.3301795E-2,-1.36809E-1,-7.039314E-2,-4.1523173E-2,-6.253009E-2,-2.6291026E-2,-3.7140626E-2,-5.2112252E-3,-3.075844E-2,-8.154831E-3,3.421056E-2,9.838451E-3,6.2050964E-3,4.4979524E-2,7.6735824E-2,4.307022E-2,-1.1004846E-2,2.1651099E-2,1.7113514E-2,5.2892562E-2,8.794218E-2,1.3281399E-1,3.573696E-2,7.704104E-2,4.5955267E-2,7.625718E-2,9.822103E-2,5.687461E-2,1.3804601E-1,2.1696904E-1,7.587339E-2,1.1739212E-1],"split_indices":[3,0,3,3,0,0,0,9,3,3,3,3,9,3,9,1,0,0,0,3,9,0,9,0,0,0,0,6,9,0,0,0,0,0,0,0,0,0,0,0,0,0,0,0,0,0,0,0,0,0,0,0,0,0,0,0,0,0,0,0,0,0,0],"split_type":[0,0,0,0,0,0,0,0,0,0,0,0,0,0,0,0,0,0,0,0,0,0,0,0,0,0,0,0,0,0,0,0,0,0,0,0,0,0,0,0,0,0,0,0,0,0,0,0,0,0,0,0,0,0,0,0,0,0,0,0,0,0,0],"sum_hessian":[7.213E3,3.125E3,4.088E3,2.78E3,3.45E2,2.186E3,1.902E3,1.273E3,1.507E3,2.41E2,1.04E2,1.979E3,2.07E2,1.63E3,2.72E2,9.61E2,3.12E2,7.61E2,7.46E2,1.1E2,1.31E2,3.1E1,7.3E1,1.093E3,8.86E2,1.55E2,5.2E1,1.215E3,4.15E2,2E2,7.2E1,8.24E2,1.37E2,2.54E2,5.8E1,6.48E2,1.13E2,5.97E2,1.49E2,4.6E1,6.4E1,8.1E1,5E1,2.2E1,9E0,5.4E1,1.9E1,8.53E2,2.4E2,7.34E2,1.52E2,9.2E1,6.3E1,2.7E1,2.5E1,9.24E2,2.91E2,3.09E2,1.06E2,1.6E2,4E1,4.1E1,3.1E1],"tree_param":{"num_deleted":"0","num_feature":"16","num_nodes":"63","size_leaf_vector":"1"}},{"base_weights":[9.011556E-3,-1.0485214E0,8.3737093E-1,-1.3096213E0,-2.4355577E-2,2.8516975E-1,1.366192E0,-1.8883601E0,-9.512394E-1,-4.4161987E-1,6.4978534E-1,3.540319E-2,1.2570136E0,1.1188954E0,2.4717953E0,-1.7216822E0,-2.3846927E0,-1.2372341E0,-6.9359225E-1,-9.092705E-1,-5.698926E-2,-1.8944463E-1,8.326207E-1,-2.0214656E-1,2.7900633E-1,8.7176603E-1,1.987978E0,7.6750296E-1,1.3755327E0,2.0866635E0,3.1236784E0,-7.62015E-2,-1.0679879E-1,-1.2664543E-1,-8.61085E-2,-5.551061E-2,-8.1420936E-2,-4.035604E-2,-1.4991893E-2,-5.359428E-2,-3.222625E-2,-1.1918846E-2,1.3170942E-2,-1.9270122E-2,1.9077811E-2,3.0537872E-2,7.092649E-2,-1.5308912E-2,1.1954973E-2,7.410835E-3,3.163391E-2,3.5300113E-2,6.640934E-2,9.010243E-2,1.4474367E-1,4.5617394E-2,1.6875286E-2,6.008574E-2,9.418385E-2,8.614366E-2,1.2809798E-1,1.3424765E-1,1.9853564E-1],"categories":[],"categories_nodes":[],"categories_segments":[],"categories_sizes":[],"default_left":[0,0,0,0,0,0,0,0,0,0,0,0,0,0,0,0,0,0,0,0,0,0,0,0,0,0,0,0,0,0,0,0,0,0,0,0,0,0,0,0,0,0,0,0,0,0,0,0,0,0,0,0,0,0,0,0,0,0,0,0,0,0,0],"id":13,"left_children":[1,3,5,7,9,11,13,15,17,19,21,23,25,27,29,31,33,35,37,39,41,43,45,47,49,51,53,55,57,59,61,-1,-1,-1,-1,-1,-1,-1,-1,-1,-1,-1,-1,-1,-1,-1,-1,-1,-1,-1,-1,-1,-1,-1,-1,-1,-1,-1,-1,-1,-1,-1,-1],"loss_changes":[6.322219E3,8.4765674E2,1.1813975E3,5.221201E2,1.817222E2,4.808117E2,5.623772E2,7.572656E1,1.1423901E2,7.171741E1,3.8057632E1,9.131402E1,1.1231586E2,1.5143921E2,8.8131836E1,5.6194336E1,1.9204956E1,3.491223E1,3.6592773E1,7.058441E0,1.2848766E1,5.1821957E0,2.5521942E1,3.675015E1,3.5940125E1,1.9262985E1,1.8221252E1,4.428662E1,8.394116E1,3.7083984E1,4.0621826E1,0E0,0E0,0E0,0E0,0E0,0E0,0E0,0E0,0E0,0E0,0E0,0E0,0E0,0E0,0E0,0E0,0E0,0E0,0E0,0E0,0E0,0E0,0E0,0E0,0E0,0E0,0E0,0E0,0E0,0E0,0E0,0E0],"parents":[2147483647,0,0,1,1,2,2,3,3,4,4,5,5,6,6,7,7,8,8,9,9,10,10,11,11,12,12,13,13,14,14,15,15,16,16,17,17,18,18,19,19,20,20,21,21,22,22,23,23,24,24,25,25,26,26,27,27,28,28,29,29,30,30],"right_children":[2,4,6,8,10,12,14,16,18,20,22,24,26,28,30,32,34,36,38,40,42,44,46,48,50,52,54,56,58,60,62,-1,-1,-1,-1,-1,-1,-1,-1,-1,-1,-1,-1,-1,-1,-1,-1,-1,-1,-1,-1,-1,-1,-1,-1,-1,-1,-1,-1,-1,-1,-1,-1],"split_conditions":[-5.682465E2,4.5101616E1,2.1793809E3,-3.3138618E3,1.4633917E2,4.438467E1,4.8614563E1,1E0,-2.0300691E3,-3.0519495E3,-3.9502932E3,8.495209E2,1.6337738E2,3.3639783E3,1.6158868E2,1E0,1.1598779E1,7.839273E0,9.74073E0,1.0394258E1,-1.4205654E3,2.75817E2,2.704719E2,1.1741291E1,9.408359E0,1.338165E3,3.056167E2,7.079816E0,1E0,3.712679E3,1E0,-7.62015E-2,-1.0679879E-1,-1.2664543E-1,-8.61085E-2,-5.551061E-2,-8.1420936E-2,-4.035604E-2,-1.4991893E-2,-5.359428E-2,-3.222625E-2,-1.1918846E-2,1.3170942E-2,-1.9270122E-2,1.9077811E-2,3.0537872E-2,7.092649E-2,-1.5308912E-2,1.1954973E-2,7.410835E-3,3.163391E-2,3.5300113E-2,6.640934E-2,9.010243E-2,1.4474367E-1,4.5617394E-2,1.6875286E-2,6.008574E-2,9.418385E-2,8.614366E-2,1.2809798E-1,1.3424765E-1,1.9853564E-1],"split_indices":[3,0,3,3,0,0,0,6,3,3,3,3,0,3,0,7,2,1,2,2,3,0,0,2,2,3,0,1,6,3,6,0,0,0,0,0,0,0,0,0,0,0,0,0,0,0,0,0,0,0,0,0,0,0,0,0,0,0,0,0,0,0,0],"split_type":[0,0,0,0,0,0,0,0,0,0,0,0,0,0,0,0,0,0,0,0,0,0,0,0,0,0,0,0,0,0,0,0,0,0,0,0,0,0,0,0,0,0,0,0,0,0,0,0,0,0,0,0,0,0,0,0,0,0,0,0,0,0,0],"sum_hessian":[7.215E3,3.169E3,4.046E3,2.525E3,6.44E2,1.98E3,2.066E3,9.64E2,1.561E3,3.98E2,2.46E2,1.576E3,4.04E2,1.69E3,3.76E2,7.25E2,2.39E2,7.38E2,8.23E2,1.79E2,2.19E2,4.4E1,2.02E2,7.98E2,7.78E2,2.66E2,1.38E2,7.15E2,9.75E2,2.39E2,1.37E2,4.94E2,2.31E2,1.93E2,4.6E1,5.6E2,1.78E2,6.38E2,1.85E2,1.09E2,7E1,1.4E2,7.9E1,3.3E1,1.1E1,1.48E2,5.4E1,6.46E2,1.52E2,5.69E2,2.09E2,1.97E2,6.9E1,1.17E2,2.1E1,5.34E2,1.81E2,7.29E2,2.46E2,1.38E2,1.01E2,9.3E1,4.4E1],"tree_param":{"num_deleted":"0","num_feature":"16","num_nodes":"63","size_leaf_vector":"1"}},{"base_weights":[2.1198173E-3,-8.1564856E-1,9.6877474E-1,-1.3002838E0,-2.7064866E-1,7.161867E-1,1.9136873E0,-1.5396974E0,-3.230598E-1,-4.948464E-1,6.810498E-1,3.639682E-1,1.2466981E0,1.5311694E0,2.572214E0,-1.8688297E0,-1.2655971E0,-6.382483E-1,4.5041007E-1,-7.126595E-1,-2.6621076E-1,3.1895152E-1,1.2143012E0,1.3686326E-1,6.3770366E-1,1.4292653E0,7.654357E-1,1.1332687E0,2.1030734E0,2.8670852E0,1.7191552E0,-8.483522E-2,-1.19266905E-1,-7.071149E-2,-4.3015406E-2,-4.4029314E-2,-1.7186858E-2,-9.691125E-3,3.163011E-2,-2.9903749E-2,-5.5626966E-2,-6.615395E-3,-2.7836436E-2,7.942861E-4,2.3791049E-2,4.9689844E-2,9.706144E-2,4.9898133E-4,2.3940362E-2,3.8836088E-2,1.124034E-2,8.18096E-2,5.0486993E-2,4.5367207E-2,2.3980023E-2,4.7388244E-2,8.377102E-2,1.1401381E-1,6.629992E-2,1.10375226E-1,1.6676119E-1,6.65062E-2,1.07028775E-1],"categories":[],"categories_nodes":[],"categories_segments":[],"categories_sizes":[],"default_left":[0,0,0,0,0,0,0,0,0,0,0,0,0,0,0,0,0,0,0,0,0,0,0,0,0,0,0,0,0,0,0,0,0,0,0,0,0,0,0,0,0,0,0,0,0,0,0,0,0,0,0,0,0,0,0,0,0,0,0,0,0,0,0],"id":14,"left_children":[1,3,5,7,9,11,13,15,17,19,21,23,25,27,29,31,33,35,37,39,41,43,45,47,49,51,53,55,57,59,61,-1,-1,-1,-1,-1,-1,-1,-1,-1,-1,-1,-1,-1,-1,-1,-1,-1,-1,-1,-1,-1,-1,-1,-1,-1,-1,-1,-1,-1,-1,-1,-1],"loss_changes":[5.712942E3,1.0337019E3,7.8911694E2,4.842693E2,3.9378888E2,4.8817444E2,1.7188623E2,1.4775293E2,9.999711E1,7.416138E1,6.758017E1,9.77009E1,9.054675E1,9.865369E1,5.9214355E1,6.2986572E1,5.3661255E1,2.0466331E1,1.409013E1,3.4341156E1,2.8324207E1,1.0023752E1,2.0832108E1,3.735151E1,4.0751648E1,6.389038E1,1.1287384E1,2.4962921E1,2.1900085E1,5.0687256E1,8.301056E0,0E0,0E0,0E0,0E0,0E0,0E0,0E0,0E0,0E0,0E0,0E0,0E0,0E0,0E0,0E0,0E0,0E0,0E0,0E0,0E0,0E0,0E0,0E0,0E0,0E0,0E0,0E0,0E0,0E0,0E0,0E0,0E0],"parents":[2147483647,0,0,1,1,2,2,3,3,4,4,5,5,6,6,7,7,8,8,9,9,10,10,11,11,12,12,13,13,14,14,15,15,16,16,17,17,18,18,19,19,20,20,21,21,22,22,23,23,24,24,25,25,26,26,27,27,28,28,29,29,30,30],"right_children":[2,4,6,8,10,12,14,16,18,20,22,24,26,28,30,32,34,36,38,40,42,44,46,48,50,52,54,56,58,60,62,-1,-1,-1,-1,-1,-1,-1,-1,-1,-1,-1,-1,-1,-1,-1,-1,-1,-1,-1,-1,-1,-1,-1,-1,-1,-1,-1,-1,-1,-1,-1,-1],"split_conditions":[4.4388635E2,-2.1224675E3,3.708806E1,4.5101616E1,5.279206E1,3.1936533E3,1.4829346E2,-3.726258E3,1.8286234E2,-7.986371E2,1.511176E2,1.9929861E3,1E0,3.1936533E3,1E0,1E0,1E0,-3.5234307E3,-4.2546987E3,7.748788E0,4.4015813E0,-1.2411572E3,2.75817E2,9.408359E0,1E0,5.33585E0,4.4772387E0,1E0,1E0,2.2587944E3,3.4297231E3,-8.483522E-2,-1.19266905E-1,-7.071149E-2,-4.3015406E-2,-4.4029314E-2,-1.7186858E-2,-9.691125E-3,3.163011E-2,-2.9903749E-2,-5.5626966E-2,-6.615395E-3,-2.7836436E-2,7.942861E-4,2.3791049E-2,4.9689844E-2,9.706144E-2,4.9898133E-4,2.3940362E-2,3.8836088E-2,1.124034E-2,8.18096E-2,5.0486993E-2,4.5367207E-2,2.3980023E-2,4.7388244E-2,8.377102E-2,1.1401381E-1,6.629992E-2,1.10375226E-1,1.6676119E-1,6.65062E-2,1.07028775E-1],"split_indices":[3,3,0,0,0,3,0,3,0,3,0,3,9,3,9,6,9,3,3,1,1,3,0,2,9,1,1,6,9,3,3,0,0,0,0,0,0,0,0,0,0,0,0,0,0,0,0,0,0,0,0,0,0,0,0,0,0,0,0,0,0,0,0],"split_type":[0,0,0,0,0,0,0,0,0,0,0,0,0,0,0,0,0,0,0,0,0,0,0,0,0,0,0,0,0,0,0,0,0,0,0,0,0,0,0,0,0,0,0,0,0,0,0,0,0,0,0,0,0,0,0,0,0,0,0,0,0,0,0],"sum_hessian":[7.225E3,3.914E3,3.311E3,2.071E3,1.843E3,2.614E3,6.97E2,1.663E3,4.08E2,1.492E3,3.51E2,1.572E3,1.042E3,4.43E2,2.54E2,7.53E2,9.1E2,2.9E2,1.18E2,7.63E2,7.29E2,2.1E2,1.41E2,8.6E2,7.12E2,7.54E2,2.88E2,2.63E2,1.8E2,1.87E2,6.7E1,5.68E2,1.85E2,6.64E2,2.46E2,1.58E2,1.32E2,2.6E1,9.2E1,5.95E2,1.68E2,5E2,2.29E2,7.2E1,1.38E2,1.1E2,3.1E1,6.28E2,2.32E2,5.32E2,1.8E2,5.03E2,2.51E2,1.91E2,9.7E1,1.98E2,6.5E1,1.45E2,3.5E1,8E1,1.07E2,3.7E1,3E1],"tree_param":{"num_deleted":"0","num_feature":"16","num_nodes":"63","size_leaf_vector":"1"}},{"base_weights":[1.6773387E-4,-7.909865E-1,8.9590245E-1,-1.3005483E0,-3.3532202E-1,5.472285E-1,1.4286968E0,-9.259175E-1,-1.6575155E0,-3.2034804E-4,-6.75004E-1,8.95099E-1,2.1088466E-1,1.8016086E0,1.0497019E0,-1.2560782E0,-7.032279E-1,-2.111103E0,-1.459446E0,-2.589142E-1,2.4928825E-1,-9.6628904E-1,-4.6140304E-1,6.41917E-1,1.1949729E0,-4.7199707E-2,4.4946113E-1,1.5717715E0,2.5025575E0,1.2094359E0,5.929258E-1,-7.891052E-2,-5.4924425E-2,-4.331481E-2,-1.9766307E-2,-1.144186E-1,-7.413024E-2,-6.551598E-2,-9.573134E-2,-2.8494123E-2,-2.5715309E-3,7.3112425E-4,2.2435097E-2,-5.6585442E-2,-3.4365352E-2,-1.8275877E-2,-4.3853685E-2,3.736909E-2,1.3848454E-2,4.897474E-2,8.774834E-2,2.3063326E-3,-2.5496826E-2,2.9017983E-2,5.103368E-3,6.776007E-2,1.02365926E-1,8.451389E-2,1.325152E-1,6.871951E-2,3.4111552E-2,3.2203164E-2,2.3844463E-3],"categories":[],"categories_nodes":[],"categories_segments":[],"categories_sizes":[],"default_left":[0,0,0,0,0,0,0,0,0,0,0,0,0,0,0,0,0,0,0,0,0,0,0,0,0,0,0,0,0,0,0,0,0,0,0,0,0,0,0,0,0,0,0,0,0,0,0,0,0,0,0,0,0,0,0,0,0,0,0,0,0,0,0],"id":15,"left_children":[1,3,5,7,9,11,13,15,17,19,21,23,25,27,29,31,33,35,37,39,41,43,45,47,49,51,53,55,57,59,61,-1,-1,-1,-1,-1,-1,-1,-1,-1,-1,-1,-1,-1,-1,-1,-1,-1,-1,-1,-1,-1,-1,-1,-1,-1,-1,-1,-1,-1,-1,-1,-1],"loss_changes":[5.098131E3,8.8652686E2,6.260112E2,2.3958228E2,2.2963612E2,2.3861664E2,1.8664526E2,6.3964294E1,7.975293E1,6.570909E1,6.189737E1,7.53833E1,6.399541E1,1.0416748E2,4.7730103E1,1.623706E1,2.6218079E1,2.7580078E1,4.127356E1,3.22311E1,2.4233536E1,1.8743256E1,2.2796356E1,2.080809E1,5.3546204E1,2.1616291E1,2.449636E1,4.9544067E1,1.5202148E1,4.1762024E1,4.820759E0,0E0,0E0,0E0,0E0,0E0,0E0,0E0,0E0,0E0,0E0,0E0,0E0,0E0,0E0,0E0,0E0,0E0,0E0,0E0,0E0,0E0,0E0,0E0,0E0,0E0,0E0,0E0,0E0,0E0,0E0,0E0,0E0],"parents":[2147483647,0,0,1,1,2,2,3,3,4,4,5,5,6,6,7,7,8,8,9,9,10,10,11,11,12,12,13,13,14,14,15,15,16,16,17,17,18,18,19,19,20,20,21,21,22,22,23,23,24,24,25,25,26,26,27,27,28,28,29,29,30,30],"right_children":[2,4,6,8,10,12,14,16,18,20,22,24,26,28,30,32,34,36,38,40,42,44,46,48,50,52,54,56,58,60,62,-1,-1,-1,-1,-1,-1,-1,-1,-1,-1,-1,-1,-1,-1,-1,-1,-1,-1,-1,-1,-1,-1,-1,-1,-1,-1,-1,-1,-1,-1,-1,-1],"split_conditions":[2.9139804E2,-2.4875742E3,3.1936533E3,2.1305917E-2,7.394624E-2,2.1305917E-2,9.808181E-3,-4.030324E3,-4.293716E3,5.0120387E0,-1.277459E3,1.8925938E3,1.7568062E3,1E0,1E0,3.1124818E0,8.135694E0,1E0,1E0,-1.4205654E3,-1.1628452E3,6.923836E0,1.1686734E1,1E0,1E0,1.1866709E1,1E0,1E0,1.0906953E0,9.902126E0,1.554036E1,-7.891052E-2,-5.4924425E-2,-4.331481E-2,-1.9766307E-2,-1.144186E-1,-7.413024E-2,-6.551598E-2,-9.573134E-2,-2.8494123E-2,-2.5715309E-3,7.3112425E-4,2.2435097E-2,-5.6585442E-2,-3.4365352E-2,-1.8275877E-2,-4.3853685E-2,3.736909E-2,1.3848454E-2,4.897474E-2,8.774834E-2,2.3063326E-3,-2.5496826E-2,2.9017983E-2,5.103368E-3,6.776007E-2,1.02365926E-1,8.451389E-2,1.325152E-1,6.871951E-2,3.4111552E-2,3.2203164E-2,2.3844463E-3],"split_indices":[3,3,3,1,1,1,1,3,3,2,3,3,3,6,9,2,2,9,6,3,3,2,1,9,6,1,9,7,2,1,1,0,0,0,0,0,0,0,0,0,0,0,0,0,0,0,0,0,0,0,0,0,0,0,0,0,0,0,0,0,0,0,0],"split_type":[0,0,0,0,0,0,0,0,0,0,0,0,0,0,0,0,0,0,0,0,0,0,0,0,0,0,0,0,0,0,0,0,0,0,0,0,0,0,0,0,0,0,0,0,0,0,0,0,0,0,0,0,0,0,0,0,0,0,0,0,0,0,0],"sum_hessian":[7.192E3,3.819E3,3.373E3,1.802E3,2.017E3,2.04E3,1.333E3,8.81E2,9.21E2,1.016E3,1.001E3,1.002E3,1.038E3,6.7E2,6.63E2,3.53E2,5.28E2,2.77E2,6.44E2,4.99E2,5.17E2,4.22E2,5.79E2,5.45E2,4.57E2,4.99E2,5.39E2,5.07E2,1.63E2,4.9E2,1.73E2,1.13E2,2.4E2,3.44E2,1.84E2,2.14E2,6.3E1,4.88E2,1.56E2,1.99E2,3E2,2.38E2,2.79E2,2.63E2,1.59E2,4.72E2,1.07E2,4.22E2,1.23E2,3.32E2,1.25E2,4.16E2,8.3E1,3.91E2,1.48E2,3.51E2,1.56E2,2.7E1,1.36E2,3.72E2,1.18E2,1.58E2,1.5E1],"tree_param":{"num_deleted":"0","num_feature":"16","num_nodes":"63","size_leaf_vector":"1"}},{"base_weights":[1.3476647E-2,-9.0709037E-1,7.095393E-1,-1.0566356E0,4.694496E-1,3.0372176E-1,1.2363595E0,-1.4817249E0,-7.238841E-1,2.2963169E-1,9.7638625E-1,1.5622862E-1,1.6538627E0,9.9139243E-1,2.1240952E0,-1.6054926E0,-9.4719124E-1,-8.257221E-1,-1.8827808E-1,-4.834951E-2,6.136098E-1,4.0562636E-1,1.2138335E0,-4.5406897E-2,4.5512682E-1,1.8738352E0,9.486994E-1,8.3281136E-1,1.4150088E0,1.7449503E0,2.72092E0,-7.280266E-2,-1.0397052E-1,-5.4199483E-2,-3.140697E-2,-5.1736124E-2,-3.0182738E-2,-1.8872214E-2,1.9356812E-3,-1.5871696E-2,7.2808727E-3,3.7879277E-2,1.4976737E-2,8.721364E-3,4.252909E-2,6.9189586E-2,3.6837216E-2,-7.7666542E-3,2.3322796E-2,1.6654583E-2,5.0860085E-2,7.589304E-2,1.1916097E-1,3.2379862E-2,6.356087E-2,3.492889E-2,6.1223984E-2,6.185576E-2,9.812317E-2,9.674977E-2,5.4044623E-2,1.523644E-1,9.3034886E-2],"categories":[],"categories_nodes":[],"categories_segments":[],"categories_sizes":[],"default_left":[0,0,0,0,0,0,0,0,0,0,0,0,0,0,0,0,0,0,0,0,0,0,0,0,0,0,0,0,0,0,0,0,0,0,0,0,0,0,0,0,0,0,0,0,0,0,0,0,0,0,0,0,0,0,0,0,0,0,0,0,0,0,0],"id":16,"left_children":[1,3,5,7,9,11,13,15,17,19,21,23,25,27,29,31,33,35,37,39,41,43,45,47,49,51,53,55,57,59,61,-1,-1,-1,-1,-1,-1,-1,-1,-1,-1,-1,-1,-1,-1,-1,-1,-1,-1,-1,-1,-1,-1,-1,-1,-1,-1,-1,-1,-1,-1,-1,-1],"loss_changes":[4.591136E3,6.355591E2,8.7189966E2,3.9258032E2,3.661226E1,4.5895038E2,3.8389624E2,7.92583E1,8.509833E1,2.2124578E1,1.2653587E1,1.25379135E2,3.3433777E1,9.23999E1,8.191846E1,6.708594E1,9.444916E0,6.0314575E1,1.079234E1,6.3616357E0,3.7071457E0,2.9378347E0,4.4942856E0,7.00125E1,5.714203E1,2.7570984E1,4.614971E0,5.2560913E1,3.438513E1,2.7818115E1,3.5599976E1,0E0,0E0,0E0,0E0,0E0,0E0,0E0,0E0,0E0,0E0,0E0,0E0,0E0,0E0,0E0,0E0,0E0,0E0,0E0,0E0,0E0,0E0,0E0,0E0,0E0,0E0,0E0,0E0,0E0,0E0,0E0,0E0],"parents":[2147483647,0,0,1,1,2,2,3,3,4,4,5,5,6,6,7,7,8,8,9,9,10,10,11,11,12,12,13,13,14,14,15,15,16,16,17,17,18,18,19,19,20,20,21,21,22,22,23,23,24,24,25,25,26,26,27,27,28,28,29,29,30,30],"right_children":[2,4,6,8,10,12,14,16,18,20,22,24,26,28,30,32,34,36,38,40,42,44,46,48,50,52,54,56,58,60,62,-1,-1,-1,-1,-1,-1,-1,-1,-1,-1,-1,-1,-1,-1,-1,-1,-1,-1,-1,-1,-1,-1,-1,-1,-1,-1,-1,-1,-1,-1,-1,-1],"split_conditions":[-6.526684E2,1.2279427E2,2.541298E3,-3.1455774E3,2.3669551E2,1.2782778E2,3.79237E1,2.1219532E1,2.4275955E1,-2.1723179E3,-3.6433357E3,1.338165E3,1E0,4.313343E3,1.3544598E2,1E0,1.12631E1,-1.8672605E3,-1.6868159E3,-3.5593638E3,1E0,3.325967E2,1E0,2.8029377E1,1.644231E1,2.1762108E2,2.0877069E2,1E0,1E0,1E0,1E0,-7.280266E-2,-1.0397052E-1,-5.4199483E-2,-3.140697E-2,-5.1736124E-2,-3.0182738E-2,-1.8872214E-2,1.9356812E-3,-1.5871696E-2,7.2808727E-3,3.7879277E-2,1.4976737E-2,8.721364E-3,4.252909E-2,6.9189586E-2,3.6837216E-2,-7.7666542E-3,2.3322796E-2,1.6654583E-2,5.0860085E-2,7.589304E-2,1.1916097E-1,3.2379862E-2,6.356087E-2,3.492889E-2,6.1223984E-2,6.185576E-2,9.812317E-2,9.674977E-2,5.4044623E-2,1.523644E-1,9.3034886E-2],"split_indices":[3,0,3,3,0,0,0,0,0,3,3,3,9,3,0,6,2,3,3,3,9,0,9,0,0,0,0,6,6,9,9,0,0,0,0,0,0,0,0,0,0,0,0,0,0,0,0,0,0,0,0,0,0,0,0,0,0,0,0,0,0,0,0],"split_type":[0,0,0,0,0,0,0,0,0,0,0,0,0,0,0,0,0,0,0,0,0,0,0,0,0,0,0,0,0,0,0,0,0,0,0,0,0,0,0,0,0,0,0,0,0,0,0,0,0,0,0,0,0,0,0,0,0,0,0,0,0,0,0],"sum_hessian":[7.163E3,3.084E3,4.079E3,2.782E3,3.02E2,2.305E3,1.774E3,1.22E3,1.562E3,2.06E2,9.6E1,2.079E3,2.26E2,1.392E3,3.82E2,9.89E2,2.31E2,1.312E3,2.5E2,1.2E2,8.6E1,2.9E1,6.7E1,1.242E3,8.37E2,1.71E2,5.5E1,1.015E3,3.77E2,2.36E2,1.46E2,7.55E2,2.34E2,1.6E2,7.1E1,6.74E2,6.38E2,1.36E2,1.14E2,5E1,7E1,5.8E1,2.8E1,2E1,9E0,4.8E1,1.9E1,1.023E3,2.19E2,6.89E2,1.48E2,1.03E2,6.8E1,3E1,2.5E1,7.58E2,2.57E2,2.87E2,9E1,1.82E2,5.4E1,1.04E2,4.2E1],"tree_param":{"num_deleted":"0","num_feature":"16","num_nodes":"63","size_leaf_vector":"1"}},{"base_weights":[-2.208542E-3,-8.57474E-1,6.7358637E-1,-9.968559E-1,4.7112334E-1,2.627442E-1,1.1617811E0,-1.4268062E0,-6.861966E-1,3.0314586E-1,1.0763471E0,5.220617E-2,1.0368686E0,9.1652566E-1,1.9527656E0,-1.3167619E0,-2.0430753E0,-7.8011674E-1,-1.9405988E-1,-9.211012E-2,6.02466E-1,3.45168E-1,1.218899E0,-1.9175415E-1,2.6266137E-1,7.369752E-1,1.6617314E0,7.251697E-1,1.3076816E0,1.6641467E0,2.6562371E0,-5.9153784E-2,-8.600111E-2,-1.1000967E-1,-7.283717E-2,-4.726112E-2,-2.5697082E-2,-1.8118547E-2,3.1289943E-3,-1.7243832E-2,4.739358E-3,3.9288428E-2,1.2127139E-2,3.35249E-3,3.060556E-2,7.032224E-2,3.6398962E-2,-1.4469348E-2,1.1263174E-2,1.721066E-2,-1.00684455E-2,4.4740807E-2,1.4154932E-2,9.222903E-2,5.1573534E-2,3.0495716E-2,5.7322938E-2,7.416074E-2,4.060441E-2,9.320695E-2,4.8997384E-2,1.5092126E-1,9.247037E-2],"categories":[],"categories_nodes":[],"categories_segments":[],"categories_sizes":[],"default_left":[0,0,0,0,0,0,0,0,0,0,0,0,0,0,0,0,0,0,0,0,0,0,0,0,0,0,0,0,0,0,0,0,0,0,0,0,0,0,0,0,0,0,0,0,0,0,0,0,0,0,0,0,0,0,0,0,0,0,0,0,0,0,0],"id":17,"left_children":[1,3,5,7,9,11,13,15,17,19,21,23,25,27,29,31,33,35,37,39,41,43,45,47,49,51,53,55,57,59,61,-1,-1,-1,-1,-1,-1,-1,-1,-1,-1,-1,-1,-1,-1,-1,-1,-1,-1,-1,-1,-1,-1,-1,-1,-1,-1,-1,-1,-1,-1,-1,-1],"loss_changes":[4.1418335E3,5.862014E2,8.0258044E2,3.8142627E2,3.0274559E1,3.5443304E2,3.5302393E2,7.868994E1,7.676129E1,2.8094507E1,6.3543015E0,8.789775E1,8.591272E1,1.0369202E2,8.329077E1,5.3007324E1,1.3377014E1,6.0908203E1,1.1599023E1,4.8985515E0,8.716019E0,8.498595E-1,3.9479065E0,3.235187E1,3.4846584E1,2.2385025E1,1.5383759E1,4.499179E1,3.8638367E1,4.045508E1,3.0653442E1,0E0,0E0,0E0,0E0,0E0,0E0,0E0,0E0,0E0,0E0,0E0,0E0,0E0,0E0,0E0,0E0,0E0,0E0,0E0,0E0,0E0,0E0,0E0,0E0,0E0,0E0,0E0,0E0,0E0,0E0,0E0,0E0],"parents":[2147483647,0,0,1,1,2,2,3,3,4,4,5,5,6,6,7,7,8,8,9,9,10,10,11,11,12,12,13,13,14,14,15,15,16,16,17,17,18,18,19,19,20,20,21,21,22,22,23,23,24,24,25,25,26,26,27,27,28,28,29,29,30,30],"right_children":[2,4,6,8,10,12,14,16,18,20,22,24,26,28,30,32,34,36,38,40,42,44,46,48,50,52,54,56,58,60,62,-1,-1,-1,-1,-1,-1,-1,-1,-1,-1,-1,-1,-1,-1,-1,-1,-1,-1,-1,-1,-1,-1,-1,-1,-1,-1,-1,-1,-1,-1,-1,-1],"split_conditions":[-5.682465E2,1.2532745E2,2.4372747E3,-3.1830942E3,2.704719E2,3.4657795E1,3.0452806E1,9.432102E0,2.3694618E1,-2.8539084E3,-3.9857122E3,8.495209E2,1.6158868E2,4.143278E3,1.6158868E2,1E0,1E0,-1.5440201E3,8.204919E0,-3.9502932E3,1E0,3.325967E2,1E0,1.1741291E1,1.1002473E1,1E0,1E0,1.0582742E1,1E0,1E0,1E0,-5.9153784E-2,-8.600111E-2,-1.1000967E-1,-7.283717E-2,-4.726112E-2,-2.5697082E-2,-1.8118547E-2,3.1289943E-3,-1.7243832E-2,4.739358E-3,3.9288428E-2,1.2127139E-2,3.35249E-3,3.060556E-2,7.032224E-2,3.6398962E-2,-1.4469348E-2,1.1263174E-2,1.721066E-2,-1.00684455E-2,4.4740807E-2,1.4154932E-2,9.222903E-2,5.1573534E-2,3.0495716E-2,5.7322938E-2,7.416074E-2,4.060441E-2,9.320695E-2,4.8997384E-2,1.5092126E-1,9.247037E-2],"split_indices":[3,0,3,3,0,0,0,1,0,3,3,3,0,3,0,6,9,3,2,3,9,0,9,2,1,9,9,2,9,9,9,0,0,0,0,0,0,0,0,0,0,0,0,0,0,0,0,0,0,0,0,0,0,0,0,0,0,0,0,0,0,0,0],"split_type":[0,0,0,0,0,0,0,0,0,0,0,0,0,0,0,0,0,0,0,0,0,0,0,0,0,0,0,0,0,0,0,0,0,0,0,0,0,0,0,0,0,0,0,0,0,0,0,0,0,0,0,0,0,0,0,0,0,0,0,0,0,0,0],"sum_hessian":[7.164E3,3.162E3,4.002E3,2.862E3,3E2,2.174E3,1.828E3,1.199E3,1.663E3,2.36E2,6.4E1,1.71E3,4.64E2,1.397E3,4.31E2,1.02E3,1.79E2,1.396E3,2.67E2,1.02E2,1.34E2,1.1E1,5.3E1,7.92E2,9.18E2,3.15E2,1.49E2,9.4E2,4.57E2,3.08E2,1.23E2,7.69E2,2.51E2,1.39E2,4E1,8.6E2,5.36E2,1.61E2,1.06E2,4.3E1,5.9E1,8.8E1,4.6E1,6E0,5E0,3.7E1,1.6E1,6.42E2,1.5E2,7.81E2,1.37E2,2.33E2,8.2E1,1.14E2,3.5E1,7.4E2,2E2,3.36E2,1.21E2,2.37E2,7.1E1,8.3E1,4E1],"tree_param":{"num_deleted":"0","num_feature":"16","num_nodes":"63","size_leaf_vector":"1"}},{"base_weights":[2.6762078E-3,-6.6835654E-1,7.906901E-1,-1.0928392E0,-2.3474896E-1,5.031653E-1,1.2506962E0,-7.6188666E-1,-1.4016303E0,5.0471757E-2,-5.395468E-1,8.239272E-1,1.977949E-1,1.5114766E0,8.11999E-1,-1.0098451E0,-5.16463E-1,-1.789839E0,-1.1880798E0,-1.6727367E-1,2.756383E-1,-7.4359816E-1,-3.462296E-1,6.6196185E-1,1.2677568E0,2.9305276E-1,-2.1151537E-1,1.714162E0,9.751299E-1,6.305571E-1,1.0969361E0,-5.8219254E-2,-3.6586598E-2,-3.506434E-2,-1.2391012E-2,-9.650236E-2,-6.290941E-2,-6.590123E-2,-4.054906E-2,-2.1504207E-2,-2.6993238E-4,2.7223723E-3,2.0266157E-2,-4.454202E-2,-2.3889948E-2,-2.139381E-2,2.0070798E-3,2.4973728E-2,4.8918527E-2,4.3575086E-2,7.6038554E-2,3.8228852E-3,2.4904978E-2,-1.7662207E-2,4.3049213E-3,9.714546E-2,6.3658826E-2,3.309024E-2,5.590361E-2,3.776071E-2,1.7798452E-2,6.374777E-2,3.0210003E-2],"categories":[],"categories_nodes":[],"categories_segments":[],"categories_sizes":[],"default_left":[0,0,0,0,0,0,0,0,0,0,0,0,0,0,0,0,0,0,0,0,0,0,0,0,0,0,0,0,0,0,0,0,0,0,0,0,0,0,0,0,0,0,0,0,0,0,0,0,0,0,0,0,0,0,0,0,0,0,0,0,0,0,0],"id":18,"left_children":[1,3,5,7,9,11,13,15,17,19,21,23,25,27,29,31,33,35,37,39,41,43,45,47,49,51,53,55,57,59,61,-1,-1,-1,-1,-1,-1,-1,-1,-1,-1,-1,-1,-1,-1,-1,-1,-1,-1,-1,-1,-1,-1,-1,-1,-1,-1,-1,-1,-1,-1,-1,-1],"loss_changes":[3.8252173E3,7.1886145E2,4.3941016E2,2.0066553E2,1.6815884E2,2.0053906E2,1.450951E2,5.759485E1,8.243384E1,4.9075092E1,3.6625153E1,7.097388E1,4.1040497E1,8.540491E1,2.4072388E1,1.9520325E1,2.375827E1,2.440686E1,3.1321411E1,2.1651785E1,1.4091E1,1.7342499E1,1.5222286E1,3.7248016E1,2.5343323E1,3.784546E1,8.424318E0,5.6033447E1,9.20285E0,9.828827E0,1.545723E1,0E0,0E0,0E0,0E0,0E0,0E0,0E0,0E0,0E0,0E0,0E0,0E0,0E0,0E0,0E0,0E0,0E0,0E0,0E0,0E0,0E0,0E0,0E0,0E0,0E0,0E0,0E0,0E0,0E0,0E0,0E0,0E0],"parents":[2147483647,0,0,1,1,2,2,3,3,4,4,5,5,6,6,7,7,8,8,9,9,10,10,11,11,12,12,13,13,14,14,15,15,16,16,17,17,18,18,19,19,20,20,21,21,22,22,23,23,24,24,25,25,26,26,27,27,28,28,29,29,30,30],"right_children":[2,4,6,8,10,12,14,16,18,20,22,24,26,28,30,32,34,36,38,40,42,44,46,48,50,52,54,56,58,60,62,-1,-1,-1,-1,-1,-1,-1,-1,-1,-1,-1,-1,-1,-1,-1,-1,-1,-1,-1,-1,-1,-1,-1,-1,-1,-1,-1,-1,-1,-1,-1,-1],"split_conditions":[4.4388635E2,-2.2384429E3,3.2616936E3,9.808181E-3,7.394624E-2,2.1305917E-2,2.1318042E0,-3.693905E3,-4.030324E3,5.3878317E0,-9.2649225E2,1E0,1.1866709E1,1E0,7.637125E0,8.655296E0,7.001037E0,1E0,1E0,-1.3076477E3,-1.2087056E3,6.891531E0,1.1741291E1,1E0,1.6218733E3,1.8609645E3,8.422803E0,1E0,2.211917E0,1.0536169E1,1E0,-5.8219254E-2,-3.6586598E-2,-3.506434E-2,-1.2391012E-2,-9.650236E-2,-6.290941E-2,-6.590123E-2,-4.054906E-2,-2.1504207E-2,-2.6993238E-4,2.7223723E-3,2.0266157E-2,-4.454202E-2,-2.3889948E-2,-2.139381E-2,2.0070798E-3,2.4973728E-2,4.8918527E-2,4.3575086E-2,7.6038554E-2,3.8228852E-3,2.4904978E-2,-1.7662207E-2,4.3049213E-3,9.714546E-2,6.3658826E-2,3.309024E-2,5.590361E-2,3.776071E-2,1.7798452E-2,6.374777E-2,3.0210003E-2],"split_indices":[3,3,3,1,1,1,1,3,3,2,3,6,1,9,2,2,2,9,9,3,3,2,2,7,3,3,2,8,2,1,9,0,0,0,0,0,0,0,0,0,0,0,0,0,0,0,0,0,0,0,0,0,0,0,0,0,0,0,0,0,0,0,0],"split_type":[0,0,0,0,0,0,0,0,0,0,0,0,0,0,0,0,0,0,0,0,0,0,0,0,0,0,0,0,0,0,0,0,0,0,0,0,0,0,0,0,0,0,0,0,0,0,0,0,0,0,0,0,0,0,0,0,0,0,0,0,0,0,0],"sum_hessian":[7.232E3,3.906E3,3.326E3,1.973E3,1.933E3,2.048E3,1.278E3,9.54E2,1.019E3,9.99E2,9.34E2,9.98E2,1.05E3,8E2,4.78E2,4.73E2,4.81E2,3.59E2,6.6E2,5.08E2,4.91E2,4.53E2,4.81E2,7.33E2,2.65E2,8.52E2,1.98E2,5.79E2,2.21E2,2.94E2,1.84E2,3.02E2,1.71E2,2.84E2,1.97E2,2.82E2,7.7E1,4.89E2,1.71E2,1.93E2,3.15E2,1.82E2,3.09E2,2.9E2,1.63E2,3.97E2,8.4E1,4.86E2,2.47E2,1.05E2,1.6E2,4.15E2,4.37E2,1.34E2,6.4E1,3.79E2,2E2,7.1E1,1.5E2,2.01E2,9.3E1,1.34E2,5E1],"tree_param":{"num_deleted":"0","num_feature":"16","num_nodes":"63","size_leaf_vector":"1"}},{"base_weights":[7.137838E-3,-7.713277E-1,6.187042E-1,-9.143952E-1,3.5882142E-1,4.6768662E-1,1.6779162E0,-1.2324163E0,-5.710851E-1,9.994001E-2,7.491888E-1,6.1213445E-2,8.6178726E-1,1.1467328E0,2.0383334E0,-1.3719532E0,-8.2216525E-1,-7.079443E-1,-2.6408207E-1,-2.8913036E-1,3.7396637E-1,8.780564E-2,9.122943E-1,-3.0613167E-2,4.9956524E-1,6.7788297E-1,1.1896194E0,8.7475884E-1,1.9249114E0,1.8601804E0,2.9661176E0,-5.8762927E-2,-8.347701E-2,-3.7324093E-2,-6.0422715E-2,-2.8895536E-2,-5.006161E-2,-6.1062463E-3,-3.150799E-2,-2.2418289E-2,-7.4995966E-3,2.5129301E-2,7.3541286E-3,-3.12301E-3,2.450305E-2,3.511906E-2,5.8606613E-2,-9.819402E-3,7.8087905E-3,3.3461772E-2,1.0097858E-2,2.7729262E-2,5.58922E-2,6.770523E-2,3.625684E-2,5.315832E-2,2.3268798E-2,8.246385E-2,1.2474288E-1,1.0294229E-1,6.1732877E-2,1.6980736E-1,9.737765E-2],"categories":[],"categories_nodes":[],"categories_segments":[],"categories_sizes":[],"default_left":[0,0,0,0,0,0,0,0,0,0,0,0,0,0,0,0,0,0,0,0,0,0,0,0,0,0,0,0,0,0,0,0,0,0,0,0,0,0,0,0,0,0,0,0,0,0,0,0,0,0,0,0,0,0,0,0,0,0,0,0,0,0,0],"id":19,"left_children":[1,3,5,7,9,11,13,15,17,19,21,23,25,27,29,31,33,35,37,39,41,43,45,47,49,51,53,55,57,59,61,-1,-1,-1,-1,-1,-1,-1,-1,-1,-1,-1,-1,-1,-1,-1,-1,-1,-1,-1,-1,-1,-1,-1,-1,-1,-1,-1,-1,-1,-1,-1,-1],"loss_changes":[3.4020925E3,5.086742E2,6.3937354E2,3.040171E2,3.569997E1,5.6125775E2,9.3194824E1,8.176294E1,5.6282806E1,2.2923851E1,1.5130302E1,6.9490875E1,1.06448975E2,4.1491608E1,4.3407593E1,6.11958E1,9.9151E0,3.485086E1,2.1541458E1,1.9046121E0,3.602974E0,1.7835212E0,5.3401184E0,4.4248573E1,1.4962906E1,6.1329224E1,4.7761597E1,1.1306236E1,4.0543213E0,2.864972E1,1.3534424E1,0E0,0E0,0E0,0E0,0E0,0E0,0E0,0E0,0E0,0E0,0E0,0E0,0E0,0E0,0E0,0E0,0E0,0E0,0E0,0E0,0E0,0E0,0E0,0E0,0E0,0E0,0E0,0E0,0E0,0E0,0E0,0E0],"parents":[2147483647,0,0,1,1,2,2,3,3,4,4,5,5,6,6,7,7,8,8,9,9,10,10,11,11,12,12,13,13,14,14,15,15,16,16,17,17,18,18,19,19,20,20,21,21,22,22,23,23,24,24,25,25,26,26,27,27,28,28,29,29,30,30],"right_children":[2,4,6,8,10,12,14,16,18,20,22,24,26,28,30,32,34,36,38,40,42,44,46,48,50,52,54,56,58,60,62,-1,-1,-1,-1,-1,-1,-1,-1,-1,-1,-1,-1,-1,-1,-1,-1,-1,-1,-1,-1,-1,-1,-1,-1,-1,-1,-1,-1,-1,-1,-1,-1],"split_conditions":[-5.682465E2,1.03733505E2,9.16457E1,-2.7590542E3,2.0407834E2,2.2200986E3,1.576119E3,1E0,8.204919E0,-2.8834583E3,-3.9502932E3,1.2300137E1,3.9585356E3,2.3669551E2,2.75817E2,2.6328115E0,8.376548E0,4.3499184E0,6.1428895E0,1.4633917E2,1E0,3.2407794E2,2.704719E2,9.505454E2,2.9845524E0,1.1172453E1,1E0,1E0,3.2407794E2,1E0,1E0,-5.8762927E-2,-8.347701E-2,-3.7324093E-2,-6.0422715E-2,-2.8895536E-2,-5.006161E-2,-6.1062463E-3,-3.150799E-2,-2.2418289E-2,-7.4995966E-3,2.5129301E-2,7.3541286E-3,-3.12301E-3,2.450305E-2,3.511906E-2,5.8606613E-2,-9.819402E-3,7.8087905E-3,3.3461772E-2,1.0097858E-2,2.7729262E-2,5.58922E-2,6.770523E-2,3.625684E-2,5.315832E-2,2.3268798E-2,8.246385E-2,1.2474288E-1,1.0294229E-1,6.1732877E-2,1.6980736E-1,9.737765E-2],"split_indices":[3,0,0,3,0,3,3,9,2,3,3,2,3,0,0,1,1,1,1,0,9,0,0,3,1,2,9,9,0,9,9,0,0,0,0,0,0,0,0,0,0,0,0,0,0,0,0,0,0,0,0,0,0,0,0,0,0,0,0,0,0,0,0],"split_type":[0,0,0,0,0,0,0,0,0,0,0,0,0,0,0,0,0,0,0,0,0,0,0,0,0,0,0,0,0,0,0,0,0,0,0,0,0,0,0,0,0,0,0,0,0,0,0,0,0,0,0,0,0,0,0,0,0,0,0,0,0,0,0],"sum_hessian":[7.144E3,3.143E3,4.001E3,2.79E3,3.53E2,3.503E3,4.98E2,1.447E3,1.343E3,2.13E2,1.4E2,1.725E3,1.778E3,2.03E2,2.95E2,1.078E3,3.69E2,9.28E2,4.15E2,8.8E1,1.25E2,2.8E1,1.12E2,1.427E3,2.98E2,1.141E3,6.37E2,1.52E2,5.1E1,2.5E2,4.5E1,6.52E2,4.26E2,3.11E2,5.8E1,6.45E2,2.83E2,3E2,1.15E2,4E1,4.8E1,7.9E1,4.6E1,2.1E1,7E0,6.4E1,4.8E1,7.56E2,6.71E2,1.89E2,1.09E2,8.93E2,2.48E2,4.69E2,1.68E2,1.03E2,4.9E1,3.7E1,1.4E1,1.88E2,6.2E1,3E1,1.5E1],"tree_param":{"num_deleted":"0","num_feature":"16","num_nodes":"63","size_leaf_vector":"1"}},{"base_weights":[9.7582256E-4,-6.024233E-1,7.253138E-1,-9.973432E-1,-2.2765745E-1,5.1031333E-1,1.4704795E0,-1.1855148E0,-2.2949284E-1,-4.0594766E-1,5.2018327E-1,2.5762728E-1,9.164294E-1,1.1687815E0,2.047372E0,-1.6094697E0,-1.0394377E0,-5.372011E-1,2.8716418E-1,-6.456124E-1,-2.74419E-1,3.2042646E-1,1.1854316E0,6.2919244E-2,4.485491E-1,7.806255E-1,1.3354946E0,9.4168055E-1,1.8150184E0,2.2873192E0,1.3882735E0,-7.241434E-2,-1.0281682E-1,-5.818208E-2,-3.398612E-2,-3.600901E-2,-1.7085195E-2,5.130924E-3,3.752883E-2,-2.8803414E-2,-5.5386033E-2,-1.0220139E-2,-3.47982E-2,9.441853E-3,3.0269725E-2,6.982914E-2,2.9451061E-2,6.9091776E-3,-1.804499E-2,2.923253E-2,6.5786126E-3,3.1289842E-2,5.6665022E-2,7.3075615E-2,4.1237187E-2,2.830871E-2,5.7035126E-2,7.163798E-2,1.04471795E-1,1.0508541E-1,1.5938522E-1,5.2870024E-2,8.397408E-2],"categories":[],"categories_nodes":[],"categories_segments":[],"categories_sizes":[],"default_left":[0,0,0,0,0,0,0,0,0,0,0,0,0,0,0,0,0,0,0,0,0,0,0,0,0,0,0,0,0,0,0,0,0,0,0,0,0,0,0,0,0,0,0,0,0,0,0,0,0,0,0,0,0,0,0,0,0,0,0,0,0,0,0],"id":20,"left_children":[1,3,5,7,9,11,13,15,17,19,21,23,25,27,29,31,33,35,37,39,41,43,45,47,49,51,53,55,57,59,61,-1,-1,-1,-1,-1,-1,-1,-1,-1,-1,-1,-1,-1,-1,-1,-1,-1,-1,-1,-1,-1,-1,-1,-1,-1,-1,-1,-1,-1,-1,-1,-1],"loss_changes":[3.133318E3,5.786106E2,5.212167E2,2.7483228E2,2.6794318E2,2.5939215E2,1.2448767E2,9.301807E1,5.9930607E1,5.095279E1,5.104776E1,5.8000412E1,5.4160828E1,6.888287E1,3.6203613E1,2.5112427E1,5.0141968E1,8.196083E0,1.1981406E1,1.7808472E1,3.0818977E1,1.1097816E1,1.0385399E1,2.4739265E1,3.3918198E1,3.9424866E1,1.39844055E1,2.6108917E1,1.0013763E1,2.3549377E1,4.872467E0,0E0,0E0,0E0,0E0,0E0,0E0,0E0,0E0,0E0,0E0,0E0,0E0,0E0,0E0,0E0,0E0,0E0,0E0,0E0,0E0,0E0,0E0,0E0,0E0,0E0,0E0,0E0,0E0,0E0,0E0,0E0,0E0],"parents":[2147483647,0,0,1,1,2,2,3,3,4,4,5,5,6,6,7,7,8,8,9,9,10,10,11,11,12,12,13,13,14,14,15,15,16,16,17,17,18,18,19,19,20,20,21,21,22,22,23,23,24,24,25,25,26,26,27,27,28,28,29,29,30,30],"right_children":[2,4,6,8,10,12,14,16,18,20,22,24,26,28,30,32,34,36,38,40,42,44,46,48,50,52,54,56,58,60,62,-1,-1,-1,-1,-1,-1,-1,-1,-1,-1,-1,-1,-1,-1,-1,-1,-1,-1,-1,-1,-1,-1,-1,-1,-1,-1,-1,-1,-1,-1,-1,-1],"split_conditions":[4.4388635E2,-2.3207295E3,3.293347E1,4.5101616E1,5.279206E1,3.2616936E3,1.4829346E2,-4.358398E3,1.511176E2,-1.3523688E3,2.0407834E2,1.8925938E3,1E0,3.712679E3,1E0,1E0,1E0,-3.8068198E3,2.704719E2,1.04292555E1,1.0875706E1,1.3969382E2,1E0,9.9797125E0,6.1428895E0,1E0,8.518264E0,1.576119E3,1E0,3.056167E2,2.3669551E2,-7.241434E-2,-1.0281682E-1,-5.818208E-2,-3.398612E-2,-3.600901E-2,-1.7085195E-2,5.130924E-3,3.752883E-2,-2.8803414E-2,-5.5386033E-2,-1.0220139E-2,-3.47982E-2,9.441853E-3,3.0269725E-2,6.982914E-2,2.9451061E-2,6.9091776E-3,-1.804499E-2,2.923253E-2,6.5786126E-3,3.1289842E-2,5.6665022E-2,7.3075615E-2,4.1237187E-2,2.830871E-2,5.7035126E-2,7.163798E-2,1.04471795E-1,1.0508541E-1,1.5938522E-1,5.2870024E-2,8.397408E-2],"split_indices":[3,3,0,0,0,3,0,3,0,3,0,3,6,3,9,6,9,3,0,1,1,0,9,1,1,7,1,3,12,0,0,0,0,0,0,0,0,0,0,0,0,0,0,0,0,0,0,0,0,0,0,0,0,0,0,0,0,0,0,0,0,0,0],"split_type":[0,0,0,0,0,0,0,0,0,0,0,0,0,0,0,0,0,0,0,0,0,0,0,0,0,0,0,0,0,0,0,0,0,0,0,0,0,0,0,0,0,0,0,0,0,0,0,0,0,0,0,0,0,0,0,0,0,0,0,0,0,0,0],"sum_hessian":[7.167E3,3.91E3,3.257E3,1.903E3,2.007E3,2.529E3,7.28E2,1.528E3,3.75E2,1.621E3,3.86E2,1.56E3,9.69E2,4.8E2,2.48E2,3.89E2,1.139E3,2.35E2,1.4E2,5.73E2,1.048E3,2.98E2,8.8E1,7.73E2,7.87E2,7.34E2,2.35E2,3.57E2,1.23E2,1.8E2,6.8E1,2.89E2,1E2,8.45E2,2.94E2,1.2E2,1.15E2,1.01E2,3.9E1,5E2,7.3E1,9E2,1.48E2,2.05E2,9.3E1,6.4E1,2.4E1,6.57E2,1.16E2,5.5E2,2.37E2,5.12E2,2.22E2,1.87E2,4.8E1,1.25E2,2.32E2,5.4E1,6.9E1,1.52E2,2.8E1,3.4E1,3.4E1],"tree_param":{"num_deleted":"0","num_feature":"16","num_nodes":"63","size_leaf_vector":"1"}},{"base_weights":[6.3662167E-4,-5.7222444E-1,6.76185E-1,-1.039786E0,-2.83164E-1,4.226301E-1,1.0513344E0,-7.6147616E-1,-1.3392473E0,-3.607275E-2,-5.7360333E-1,7.0443296E-1,1.5107214E-1,1.2890723E0,6.645787E-1,-9.750076E-1,-6.0237557E-1,-1.6994016E0,-1.1732846E0,-3.0916983E-1,1.1791595E-1,-8.0893165E-1,-3.690552E-1,5.597667E-1,1.1142999E0,3.59351E-2,4.486553E-1,1.1230853E0,1.8170251E0,5.311503E-1,1.0220296E0,-5.5374034E-2,-3.1157374E-2,-4.2878285E-2,-2.3680773E-2,-9.1343336E-2,-6.0474366E-2,-5.240009E-2,-7.9210356E-2,-2.5637243E-2,-6.591721E-3,-4.934011E-3,1.4793198E-2,-4.5250606E-2,-1.4266479E-2,-1.46246E-2,-3.8877014E-2,2.0289764E-2,4.2890128E-2,3.211426E-2,6.597444E-2,6.173791E-3,-1.6376032E-2,6.70556E-3,3.0864418E-2,4.7346417E-2,7.5325914E-2,7.247421E-2,1.0758469E-1,3.0259972E-2,1.533948E-3,5.9011836E-2,2.6362387E-2],"categories":[],"categories_nodes":[],"categories_segments":[],"categories_sizes":[],"default_left":[0,0,0,0,0,0,0,0,0,0,0,0,0,0,0,0,0,0,0,0,0,0,0,0,0,0,0,0,0,0,0,0,0,0,0,0,0,0,0,0,0,0,0,0,0,0,0,0,0,0,0,0,0,0,0,0,0,0,0,0,0,0,0],"id":21,"left_children":[1,3,5,7,9,11,13,15,17,19,21,23,25,27,29,31,33,35,37,39,41,43,45,47,49,51,53,55,57,59,61,-1,-1,-1,-1,-1,-1,-1,-1,-1,-1,-1,-1,-1,-1,-1,-1,-1,-1,-1,-1,-1,-1,-1,-1,-1,-1,-1,-1,-1,-1,-1,-1],"loss_changes":[2.7805615E3,5.251826E2,3.1316956E2,1.2274463E2,1.7250244E2,1.5057288E2,1.2134009E2,2.5639801E1,4.068347E1,5.470648E1,5.2891693E1,5.6654205E1,3.4383774E1,6.999402E1,2.3685776E1,1.4598602E1,1.421579E1,1.17161255E1,2.3668762E1,1.68638E1,3.2096855E1,2.5549744E1,1.8318604E1,3.2508453E1,2.3462402E1,2.3107891E1,1.4769119E1,4.0991272E1,2.0867004E1,1.3767563E1,1.0101807E1,0E0,0E0,0E0,0E0,0E0,0E0,0E0,0E0,0E0,0E0,0E0,0E0,0E0,0E0,0E0,0E0,0E0,0E0,0E0,0E0,0E0,0E0,0E0,0E0,0E0,0E0,0E0,0E0,0E0,0E0,0E0,0E0],"parents":[2147483647,0,0,1,1,2,2,3,3,4,4,5,5,6,6,7,7,8,8,9,9,10,10,11,11,12,12,13,13,14,14,15,15,16,16,17,17,18,18,19,19,20,20,21,21,22,22,23,23,24,24,25,25,26,26,27,27,28,28,29,29,30,30],"right_children":[2,4,6,8,10,12,14,16,18,20,22,24,26,28,30,32,34,36,38,40,42,44,46,48,50,52,54,56,58,60,62,-1,-1,-1,-1,-1,-1,-1,-1,-1,-1,-1,-1,-1,-1,-1,-1,-1,-1,-1,-1,-1,-1,-1,-1,-1,-1,-1,-1,-1,-1,-1,-1],"split_conditions":[4.4388635E2,-2.9456067E3,3.1936533E3,2.4677192E-1,4.7453657E-1,2.1305917E-2,2.1318042E0,-4.1643193E3,-4.403615E3,3.0467434E0,-1.3905015E3,1E0,9.408359E0,1E0,9.819469E0,1E0,2.6996193E0,1E0,1E0,-1.3076477E3,-1.3905015E3,1.2102892E1,1.2946835E1,1E0,2.883807E0,1.2016364E1,1.4626777E3,1E0,5.4850345E0,1.554036E1,1E0,-5.5374034E-2,-3.1157374E-2,-4.2878285E-2,-2.3680773E-2,-9.1343336E-2,-6.0474366E-2,-5.240009E-2,-7.9210356E-2,-2.5637243E-2,-6.591721E-3,-4.934011E-3,1.4793198E-2,-4.5250606E-2,-1.4266479E-2,-1.46246E-2,-3.8877014E-2,2.0289764E-2,4.2890128E-2,3.211426E-2,6.597444E-2,6.173791E-3,-1.6376032E-2,6.70556E-3,3.0864418E-2,4.7346417E-2,7.5325914E-2,7.247421E-2,1.0758469E-1,3.0259972E-2,1.533948E-3,5.9011836E-2,2.6362387E-2],"split_indices":[3,3,3,1,1,1,1,3,3,2,3,6,2,6,2,9,2,9,6,3,3,2,1,7,2,1,3,7,2,1,9,0,0,0,0,0,0,0,0,0,0,0,0,0,0,0,0,0,0,0,0,0,0,0,0,0,0,0,0,0,0,0,0],"split_type":[0,0,0,0,0,0,0,0,0,0,0,0,0,0,0,0,0,0,0,0,0,0,0,0,0,0,0,0,0,0,0,0,0,0,0,0,0,0,0,0,0,0,0,0,0,0,0,0,0,0,0,0,0,0,0,0,0,0,0,0,0,0,0],"sum_hessian":[7.183E3,3.887E3,3.296E3,1.484E3,2.403E3,1.968E3,1.328E3,7.71E2,7.13E2,1.299E3,1.104E3,9.65E2,1.003E3,8.21E2,5.07E2,3.27E2,4.44E2,2.22E2,4.91E2,4.68E2,8.31E2,5.12E2,5.92E2,7.15E2,2.5E2,7.24E2,2.79E2,6.27E2,1.94E2,3.71E2,1.36E2,2.36E2,9.1E1,1.47E2,2.97E2,1.74E2,4.8E1,3.79E2,1.12E2,2.17E2,2.51E2,3.75E2,4.56E2,4.32E2,8E1,5E2,9.2E1,4.73E2,2.42E2,7.7E1,1.73E2,5.84E2,1.4E2,9.8E1,1.81E2,4.32E2,1.95E2,9.5E1,9.9E1,3.23E2,4.8E1,1.02E2,3.4E1],"tree_param":{"num_deleted":"0","num_feature":"16","num_nodes":"63","size_leaf_vector":"1"}},{"base_weights":[3.5209921E-3,-7.0266545E-1,5.043829E-1,-1.0670478E0,-4.8540658E-1,1.5409832E-1,8.679358E-1,-9.502856E-1,-1.4342659E0,-6.2486684E-1,-2.3084863E-1,1.6772417E-2,3.7529755E-1,7.284836E-1,1.2886688E0,-8.1541276E-1,-1.2475955E0,-1.5593547E0,-1.0277916E0,-7.780662E-1,-4.5041338E-1,-3.547672E-1,-3.302899E-2,-1.2124976E-1,1.7840888E-1,2.0038737E-1,5.9518325E-1,5.699728E-1,1.0776001E0,1.1115063E0,1.6511899E0,-4.891047E-2,-3.2548066E-2,-7.075096E-2,-4.3272134E-2,-8.526622E-2,-5.9580024E-2,-4.039836E-2,-6.7799255E-2,-3.3188473E-2,-5.4062095E-2,-2.6026143E-2,-1.1142712E-2,-2.3921523E-2,-1.0523524E-2,-7.896145E-3,4.096652E-3,-1.0019842E-2,-1.1092181E-3,4.885359E-3,2.0123763E-2,7.2778813E-3,2.3387466E-2,3.558353E-2,8.223058E-3,2.1739023E-2,4.9497064E-2,4.1632496E-2,6.626024E-2,4.394294E-2,6.756504E-2,6.909802E-2,9.473295E-2],"categories":[],"categories_nodes":[],"categories_segments":[],"categories_sizes":[],"default_left":[0,0,0,0,0,0,0,0,0,0,0,0,0,0,0,0,0,0,0,0,0,0,0,0,0,0,0,0,0,0,0,0,0,0,0,0,0,0,0,0,0,0,0,0,0,0,0,0,0,0,0,0,0,0,0,0,0,0,0,0,0,0,0],"id":22,"left_children":[1,3,5,7,9,11,13,15,17,19,21,23,25,27,29,31,33,35,37,39,41,43,45,47,49,51,53,55,57,59,61,-1,-1,-1,-1,-1,-1,-1,-1,-1,-1,-1,-1,-1,-1,-1,-1,-1,-1,-1,-1,-1,-1,-1,-1,-1,-1,-1,-1,-1,-1,-1,-1],"loss_changes":[2.5554968E3,2.3681958E2,5.38162E2,4.66167E1,6.659711E1,6.542442E1,1.2074719E2,3.3147095E1,1.2023804E1,3.2095123E1,1.633881E1,2.9693155E1,3.161045E1,8.571423E1,3.12406E1,1.5131989E1,1.5666504E1,8.865143E0,3.6659698E0,2.1632812E1,8.977806E0,7.21542E0,3.7173176E0,5.625202E0,1.1045269E1,6.689888E0,1.8196335E1,6.060434E1,2.8372925E1,1.8282257E1,8.328369E0,0E0,0E0,0E0,0E0,0E0,0E0,0E0,0E0,0E0,0E0,0E0,0E0,0E0,0E0,0E0,0E0,0E0,0E0,0E0,0E0,0E0,0E0,0E0,0E0,0E0,0E0,0E0,0E0,0E0,0E0,0E0,0E0],"parents":[2147483647,0,0,1,1,2,2,3,3,4,4,5,5,6,6,7,7,8,8,9,9,10,10,11,11,12,12,13,13,14,14,15,15,16,16,17,17,18,18,19,19,20,20,21,21,22,22,23,23,24,24,25,25,26,26,27,27,28,28,29,29,30,30],"right_children":[2,4,6,8,10,12,14,16,18,20,22,24,26,28,30,32,34,36,38,40,42,44,46,48,50,52,54,56,58,60,62,-1,-1,-1,-1,-1,-1,-1,-1,-1,-1,-1,-1,-1,-1,-1,-1,-1,-1,-1,-1,-1,-1,-1,-1,-1,-1,-1,-1,-1,-1,-1,-1],"split_conditions":[-8.4570496E2,-3.4382566E3,2.1793809E3,1E0,7.2771945E0,7.6978173E0,1E0,1E0,1.0287531E1,-2.0601812E3,-1.816364E3,7.702858E2,8.937275E2,1E0,3.9585356E3,5.2575192E0,1.0215251E1,-3.90644E3,1E0,1E0,1E0,1.2008226E1,1.0582742E1,3.0467434E0,1E0,1.5622227E1,1E0,4.313343E3,3.508897E3,5.549299E0,1E0,-4.891047E-2,-3.2548066E-2,-7.075096E-2,-4.3272134E-2,-8.526622E-2,-5.9580024E-2,-4.039836E-2,-6.7799255E-2,-3.3188473E-2,-5.4062095E-2,-2.6026143E-2,-1.1142712E-2,-2.3921523E-2,-1.0523524E-2,-7.896145E-3,4.096652E-3,-1.0019842E-2,-1.1092181E-3,4.885359E-3,2.0123763E-2,7.2778813E-3,2.3387466E-2,3.558353E-2,8.223058E-3,2.1739023E-2,4.9497064E-2,4.1632496E-2,6.626024E-2,4.394294E-2,6.756504E-2,6.909802E-2,9.473295E-2],"split_indices":[3,3,3,6,2,2,6,7,2,3,3,3,3,7,3,2,2,3,12,6,9,2,2,2,6,2,9,3,3,2,12,0,0,0,0,0,0,0,0,0,0,0,0,0,0,0,0,0,0,0,0,0,0,0,0,0,0,0,0,0,0,0,0],"split_type":[0,0,0,0,0,0,0,0,0,0,0,0,0,0,0,0,0,0,0,0,0,0,0,0,0,0,0,0,0,0,0,0,0,0,0,0,0,0,0,0,0,0,0,0,0,0,0,0,0,0,0,0,0,0,0,0,0,0,0,0,0,0,0],"sum_hessian":[7.223E3,2.997E3,4.226E3,1.118E3,1.879E3,2.153E3,2.073E3,8.51E2,2.67E2,1.213E3,6.66E2,1.329E3,8.24E2,1.559E3,5.14E2,5.88E2,2.63E2,2.02E2,6.5E1,6.44E2,5.69E2,4.09E2,2.57E2,7.17E2,6.12E2,4.6E2,3.64E2,1.074E3,4.85E2,3.48E2,1.66E2,2.93E2,2.95E2,1.81E2,8.2E1,1.42E2,6E1,4.1E1,2.4E1,4.7E2,1.74E2,4.34E2,1.35E2,2.19E2,1.9E2,1.23E2,1.34E2,3.98E2,3.19E2,4.51E2,1.61E2,3.83E2,7.7E1,2.86E2,7.8E1,8.14E2,2.6E2,2.46E2,2.39E2,1.79E2,1.69E2,8.2E1,8.4E1],"tree_param":{"num_deleted":"0","num_feature":"16","num_nodes":"63","size_leaf_vector":"1"}},{"base_weights":[3.6216062E-4,-6.730145E-1,4.7542423E-1,-8.5951376E-1,3.4741769E-3,2.8287473E-1,1.1167682E0,-1.1845405E0,-6.3189006E-1,-2.993455E-1,4.5303154E-1,-6.4419426E-2,6.078679E-1,7.224273E-1,1.4992694E0,-1.3134966E0,-7.916619E-1,-5.5336934E-1,-1.0487201E0,-5.07683E-1,-5.047419E-2,2.8422022E-1,9.990846E-1,-1.610448E-1,2.2488445E-1,4.5394006E-1,9.247264E-1,4.7662818E-1,1.3134974E0,1.3193681E0,2.3742094E0,-7.503229E-2,-4.8959326E-2,-3.6640566E-2,-6.0553696E-2,-3.500404E-2,-1.7983591E-2,-5.9937198E-2,-3.0328507E-2,-3.0335573E-2,-1.2792383E-2,-7.904644E-3,8.943251E-3,-5.187686E-3,2.1790974E-2,2.2037623E-2,5.63412E-2,-4.3391264E-3,-2.4968477E-2,1.796635E-2,-2.7040716E-3,2.8111493E-2,7.587115E-3,4.0052008E-2,6.663099E-2,2.9968182E-2,6.3154697E-3,5.926434E-2,1.1205315E-1,7.425374E-2,3.6342762E-2,1.359043E-1,7.801572E-2],"categories":[],"categories_nodes":[],"categories_segments":[],"categories_sizes":[],"default_left":[0,0,0,0,0,0,0,0,0,0,0,0,0,0,0,0,0,0,0,0,0,0,0,0,0,0,0,0,0,0,0,0,0,0,0,0,0,0,0,0,0,0,0,0,0,0,0,0,0,0,0,0,0,0,0,0,0,0,0,0,0,0,0],"id":23,"left_children":[1,3,5,7,9,11,13,15,17,19,21,23,25,27,29,31,33,35,37,39,41,43,45,47,49,51,53,55,57,59,61,-1,-1,-1,-1,-1,-1,-1,-1,-1,-1,-1,-1,-1,-1,-1,-1,-1,-1,-1,-1,-1,-1,-1,-1,-1,-1,-1,-1,-1,-1,-1,-1],"loss_changes":[2.3045288E3,3.7597363E2,5.213079E2,1.7207776E2,8.7942566E1,3.668609E2,1.4598169E2,4.7648315E1,4.445581E1,1.9988174E1,2.3682823E1,4.3980053E1,8.147064E1,6.940111E1,7.462451E1,4.3703125E1,5.0363617E0,3.2712677E1,1.366716E1,5.081932E0,4.3968477E0,1.1808531E1,3.8539352E0,2.9578762E1,1.4796356E1,3.6959305E1,2.657956E1,1.4629105E1,1.4111938E1,3.937213E1,1.8988922E1,0E0,0E0,0E0,0E0,0E0,0E0,0E0,0E0,0E0,0E0,0E0,0E0,0E0,0E0,0E0,0E0,0E0,0E0,0E0,0E0,0E0,0E0,0E0,0E0,0E0,0E0,0E0,0E0,0E0,0E0,0E0,0E0],"parents":[2147483647,0,0,1,1,2,2,3,3,4,4,5,5,6,6,7,7,8,8,9,9,10,10,11,11,12,12,13,13,14,14,15,15,16,16,17,17,18,18,19,19,20,20,21,21,22,22,23,23,24,24,25,25,26,26,27,27,28,28,29,29,30,30],"right_children":[2,4,6,8,10,12,14,16,18,20,22,24,26,28,30,32,34,36,38,40,42,44,46,48,50,52,54,56,58,60,62,-1,-1,-1,-1,-1,-1,-1,-1,-1,-1,-1,-1,-1,-1,-1,-1,-1,-1,-1,-1,-1,-1,-1,-1,-1,-1,-1,-1,-1,-1,-1,-1],"split_conditions":[-8.4570496E2,3.8791508E1,3.0452806E1,-3.3138618E3,1.3357751E2,2.037226E3,1.9603988E3,1E0,1.04292555E1,-2.7590542E3,2.704719E2,1.0287531E1,4.0064443E3,1.6337738E2,2.1762108E2,1E0,1.1002473E1,5.436827E0,1E0,1.1918673E1,1.0287531E1,-3.5593638E3,-3.9857122E3,9.231379E0,6.5920033E0,1E0,1E0,1E0,3.2407794E2,1E0,1E0,-7.503229E-2,-4.8959326E-2,-3.6640566E-2,-6.0553696E-2,-3.500404E-2,-1.7983591E-2,-5.9937198E-2,-3.0328507E-2,-3.0335573E-2,-1.2792383E-2,-7.904644E-3,8.943251E-3,-5.187686E-3,2.1790974E-2,2.2037623E-2,5.63412E-2,-4.3391264E-3,-2.4968477E-2,1.796635E-2,-2.7040716E-3,2.8111493E-2,7.587115E-3,4.0052008E-2,6.663099E-2,2.9968182E-2,6.3154697E-3,5.926434E-2,1.1205315E-1,7.425374E-2,3.6342762E-2,1.359043E-1,7.801572E-2],"split_indices":[3,0,0,3,0,3,3,9,1,3,0,2,3,0,0,8,1,2,9,2,2,3,3,1,1,9,6,9,0,9,9,0,0,0,0,0,0,0,0,0,0,0,0,0,0,0,0,0,0,0,0,0,0,0,0,0,0,0,0,0,0,0,0],"split_type":[0,0,0,0,0,0,0,0,0,0,0,0,0,0,0,0,0,0,0,0,0,0,0,0,0,0,0,0,0,0,0,0,0,0,0,0,0,0,0,0,0,0,0,0,0,0,0,0,0,0,0,0,0,0,0,0,0,0,0,0,0,0,0],"sum_hessian":[7.202E3,2.979E3,4.223E3,2.335E3,6.44E2,3.249E3,9.74E2,9.6E2,1.375E3,3.85E2,2.59E2,1.571E3,1.678E3,4.81E2,4.93E2,7.21E2,2.39E2,1.159E3,2.16E2,2.09E2,1.76E2,1.99E2,6E1,1.178E3,3.93E2,1.131E3,5.47E2,3.41E2,1.4E2,4.11E2,8.2E1,4.6E2,2.61E2,2.12E2,2.7E1,6.58E2,5.01E2,1.6E2,5.6E1,1.49E2,6E1,1.2E2,5.6E1,5.6E1,1.43E2,1.2E1,4.8E1,9.67E2,2.11E2,2.65E2,1.28E2,8.32E2,2.99E2,4.22E2,1.25E2,2.52E2,8.9E1,1.25E2,1.5E1,3.2E2,9.1E1,5.6E1,2.6E1],"tree_param":{"num_deleted":"0","num_feature":"16","num_nodes":"63","size_leaf_vector":"1"}},{"base_weights":[-4.597889E-3,-5.841122E-1,5.014028E-1,-7.5576127E-1,8.529486E-2,3.874199E-1,1.5379273E0,-1.0756396E0,-5.032946E-1,-1.8718205E-1,5.286565E-1,7.440099E-2,6.6944003E-1,1.0973169E0,1.8603199E0,-9.5601046E-1,-1.4445696E0,-6.041447E-1,-2.308772E-1,-3.8106567E-1,1.7081165E-1,3.7443686E-1,1.0176126E0,-6.1039176E-2,3.1073064E-1,7.935961E-1,2.9849222E-1,9.6471816E-1,2.0515006E0,2.0819676E0,1.2557187E0,-4.032971E-2,-6.37913E-2,-7.809263E-2,-4.4974934E-2,-3.680982E-2,-2.0532737E-2,-5.53735E-3,-2.4207346E-2,-2.90209E-2,-1.1753304E-2,2.0007654E-3,1.8049484E-2,-8.680259E-4,2.7529377E-2,6.000638E-2,2.5239542E-2,1.9684269E-3,-1.7743044E-2,2.4351193E-2,2.1011184E-3,4.6756923E-2,2.0054806E-2,2.0698665E-2,-1.3279062E-3,3.973516E-2,7.032166E-2,1.104086E-1,5.855933E-2,9.634022E-2,1.6277844E-1,4.595917E-2,7.758735E-2],"categories":[],"categories_nodes":[],"categories_segments":[],"categories_sizes":[],"default_left":[0,0,0,0,0,0,0,0,0,0,0,0,0,0,0,0,0,0,0,0,0,0,0,0,0,0,0,0,0,0,0,0,0,0,0,0,0,0,0,0,0,0,0,0,0,0,0,0,0,0,0,0,0,0,0,0,0,0,0,0,0,0,0],"id":24,"left_children":[1,3,5,7,9,11,13,15,17,19,21,23,25,27,29,31,33,35,37,39,41,43,45,47,49,51,53,55,57,59,61,-1,-1,-1,-1,-1,-1,-1,-1,-1,-1,-1,-1,-1,-1,-1,-1,-1,-1,-1,-1,-1,-1,-1,-1,-1,-1,-1,-1,-1,-1,-1,-1],"loss_changes":[2.1086497E3,3.852196E2,4.529668E2,2.1492273E2,8.285094E1,3.053908E2,5.19375E1,5.0521484E1,4.0878174E1,2.9563961E1,1.9300095E1,5.2544964E1,8.358392E1,1.864421E1,2.6599426E1,4.1547974E1,1.6878296E1,2.752237E1,1.2268644E1,7.896641E0,3.716744E0,1.3812635E1,5.1972427E0,3.081402E1,2.8307655E1,7.5346924E1,1.720301E1,9.771545E0,3.4301758E-2,2.2498901E1,4.6507263E0,0E0,0E0,0E0,0E0,0E0,0E0,0E0,0E0,0E0,0E0,0E0,0E0,0E0,0E0,0E0,0E0,0E0,0E0,0E0,0E0,0E0,0E0,0E0,0E0,0E0,0E0,0E0,0E0,0E0,0E0,0E0,0E0],"parents":[2147483647,0,0,1,1,2,2,3,3,4,4,5,5,6,6,7,7,8,8,9,9,10,10,11,11,12,12,13,13,14,14,15,15,16,16,17,17,18,18,19,19,20,20,21,21,22,22,23,23,24,24,25,25,26,26,27,27,28,28,29,29,30,30],"right_children":[2,4,6,8,10,12,14,16,18,20,22,24,26,28,30,32,34,36,38,40,42,44,46,48,50,52,54,56,58,60,62,-1,-1,-1,-1,-1,-1,-1,-1,-1,-1,-1,-1,-1,-1,-1,-1,-1,-1,-1,-1,-1,-1,-1,-1,-1,-1,-1,-1,-1,-1,-1,-1],"split_conditions":[-3.2309424E2,4.5101616E1,1.21397865E2,-2.9740642E3,1.4829346E2,2.2200986E3,1.9603988E3,1E0,8.655296E0,-1.8672605E3,2.75817E2,8.204919E0,6.1428895E0,3.056167E2,1E0,1E0,1.1598779E1,-1.3905015E3,6.272302E0,-3.8068198E3,8.879747E0,-3.3138618E3,1E0,5.33585E0,3.5801404E0,1E0,1.413267E1,1E0,5.991316E0,3.056167E2,2.1762108E2,-4.032971E-2,-6.37913E-2,-7.809263E-2,-4.4974934E-2,-3.680982E-2,-2.0532737E-2,-5.53735E-3,-2.4207346E-2,-2.90209E-2,-1.1753304E-2,2.0007654E-3,1.8049484E-2,-8.680259E-4,2.7529377E-2,6.000638E-2,2.5239542E-2,1.9684269E-3,-1.7743044E-2,2.4351193E-2,2.1011184E-3,4.6756923E-2,2.0054806E-2,2.0698665E-2,-1.3279062E-3,3.973516E-2,7.032166E-2,1.104086E-1,5.855933E-2,9.634022E-2,1.6277844E-1,4.595917E-2,7.758735E-2],"split_indices":[3,0,0,3,0,3,3,6,2,3,0,2,1,0,9,7,2,3,1,3,2,3,9,1,1,9,1,6,2,0,0,0,0,0,0,0,0,0,0,0,0,0,0,0,0,0,0,0,0,0,0,0,0,0,0,0,0,0,0,0,0,0,0],"split_type":[0,0,0,0,0,0,0,0,0,0,0,0,0,0,0,0,0,0,0,0,0,0,0,0,0,0,0,0,0,0,0,0,0,0,0,0,0,0,0,0,0,0,0,0,0,0,0,0,0,0,0,0,0,0,0,0,0,0,0,0,0,0,0],"sum_hessian":[7.189E3,3.351E3,3.838E3,2.667E3,6.84E2,3.459E3,3.79E2,1.175E3,1.492E3,4.24E2,2.6E2,1.64E3,1.819E3,1.62E2,2.17E2,8.9E2,2.85E2,1.088E3,4.04E2,2.75E2,1.49E2,1.99E2,6.1E1,1.043E3,5.97E2,1.362E3,4.57E2,1.44E2,1.8E1,1.57E2,6E1,6.09E2,2.81E2,2.33E2,5.2E1,6.45E2,4.43E2,2.75E2,1.29E2,1.15E2,1.6E2,8.9E1,6E1,6.2E1,1.37E2,4.4E1,1.7E1,7.78E2,2.65E2,3.6E2,2.37E2,1E3,3.62E2,3.37E2,1.2E2,1.06E2,3.8E1,1.4E1,4E0,1.41E2,1.6E1,3E1,3E1],"tree_param":{"num_deleted":"0","num_feature":"16","num_nodes":"63","size_leaf_vector":"1"}},{"base_weights":[-8.6217123E-4,-4.6640122E-1,5.6760246E-1,-6.053601E-1,2.821262E-1,4.4372374E-1,1.4940649E0,-8.9735633E-1,-2.9041317E-1,9.267876E-2,7.9015064E-1,2.4213295E-1,7.6117444E-1,1.3390304E0,2.388651E0,-1.2520177E0,-7.8359145E-1,-4.0541998E-1,-9.470341E-2,-2.1025793E-1,3.6595064E-1,5.3408927E-1,1.1681821E0,1.528762E-1,6.165032E-1,6.3502634E-1,1.1232265E0,1.1437185E0,1.8039637E0,1.8157719E0,2.7436647E0,-6.906245E-2,-4.0208325E-2,-4.3107744E-2,-1.8727733E-2,-1.6637167E-2,-3.6279824E-2,2.3941295E-3,-1.582187E-2,-2.2428323E-2,-3.7019104E-3,2.4304166E-2,6.1306274E-3,1.9776827E-2,4.839525E-2,4.7044963E-2,8.464246E-2,1.3617602E-2,-3.874349E-3,3.7503857E-2,1.2431919E-2,3.8443737E-2,1.6231745E-2,4.8514716E-2,7.5486496E-2,4.809023E-2,8.319541E-2,7.806892E-2,1.1062076E-1,6.8739995E-2,1.1478265E-1,9.203739E-2,1.5644835E-1],"categories":[],"categories_nodes":[],"categories_segments":[],"categories_sizes":[],"default_left":[0,0,0,0,0,0,0,0,0,0,0,0,0,0,0,0,0,0,0,0,0,0,0,0,0,0,0,0,0,0,0,0,0,0,0,0,0,0,0,0,0,0,0,0,0,0,0,0,0,0,0,0,0,0,0,0,0,0,0,0,0,0,0],"id":25,"left_children":[1,3,5,7,9,11,13,15,17,19,21,23,25,27,29,31,33,35,37,39,41,43,45,47,49,51,53,55,57,59,61,-1,-1,-1,-1,-1,-1,-1,-1,-1,-1,-1,-1,-1,-1,-1,-1,-1,-1,-1,-1,-1,-1,-1,-1,-1,-1,-1,-1,-1,-1,-1,-1],"loss_changes":[1.9009268E3,4.1092426E2,3.705E2,3.060692E2,5.9501755E1,1.8245776E2,4.9643005E1,6.874011E1,3.606436E1,3.749535E1,1.5638359E1,5.8281876E1,4.989154E1,2.7630676E1,6.2040405E0,2.3081604E1,4.1806458E1,2.3260605E1,1.8826769E1,6.946189E0,6.8978195E0,5.748005E0,6.396797E0,3.8883354E1,1.63236E1,3.3983765E1,1.5381134E1,2.0448364E1,5.958618E0,1.9226761E0,5.3730164E0,0E0,0E0,0E0,0E0,0E0,0E0,0E0,0E0,0E0,0E0,0E0,0E0,0E0,0E0,0E0,0E0,0E0,0E0,0E0,0E0,0E0,0E0,0E0,0E0,0E0,0E0,0E0,0E0,0E0,0E0,0E0,0E0],"parents":[2147483647,0,0,1,1,2,2,3,3,4,4,5,5,6,6,7,7,8,8,9,9,10,10,11,11,12,12,13,13,14,14,15,15,16,16,17,17,18,18,19,19,20,20,21,21,22,22,23,23,24,24,25,25,26,26,27,27,28,28,29,29,30,30],"right_children":[2,4,6,8,10,12,14,16,18,20,22,24,26,28,30,32,34,36,38,40,42,44,46,48,50,52,54,56,58,60,62,-1,-1,-1,-1,-1,-1,-1,-1,-1,-1,-1,-1,-1,-1,-1,-1,-1,-1,-1,-1,-1,-1,-1,-1,-1,-1,-1,-1,-1,-1,-1,-1],"split_conditions":[5.2567847E2,7.023627E1,9.685517E1,-2.1723179E3,2.0407834E2,3.2616936E3,2.8382465E2,-4.358398E3,7.2771945E0,-2.1224675E3,-1.7207014E3,1.2008226E1,9.819469E0,1E0,1E0,1E0,1.2192969E1,7.748788E0,3.9401526E0,-3.9502932E3,1E0,3.2407794E2,1E0,4.0788918E0,6.0114474E0,4.9319825E0,1E0,4.043361E3,2.0407834E2,3.2407794E2,2.7532153E3,-6.906245E-2,-4.0208325E-2,-4.3107744E-2,-1.8727733E-2,-1.6637167E-2,-3.6279824E-2,2.3941295E-3,-1.582187E-2,-2.2428323E-2,-3.7019104E-3,2.4304166E-2,6.1306274E-3,1.9776827E-2,4.839525E-2,4.7044963E-2,8.464246E-2,1.3617602E-2,-3.874349E-3,3.7503857E-2,1.2431919E-2,3.8443737E-2,1.6231745E-2,4.8514716E-2,7.5486496E-2,4.809023E-2,8.319541E-2,7.806892E-2,1.1062076E-1,6.8739995E-2,1.1478265E-1,9.203739E-2,1.5644835E-1],"split_indices":[3,0,0,3,0,3,0,3,2,3,3,2,2,6,12,9,2,1,1,3,9,0,6,1,1,1,6,3,0,0,3,0,0,0,0,0,0,0,0,0,0,0,0,0,0,0,0,0,0,0,0,0,0,0,0,0,0,0,0,0,0,0,0],"split_type":[0,0,0,0,0,0,0,0,0,0,0,0,0,0,0,0,0,0,0,0,0,0,0,0,0,0,0,0,0,0,0,0,0,0,0,0,0,0,0,0,0,0,0,0,0,0,0,0,0,0,0,0,0,0,0,0,0,0,0,0,0,0,0],"sum_hessian":[7.181E3,3.948E3,3.233E3,3.33E3,6.18E2,2.853E3,3.8E2,1.727E3,1.603E3,4.51E2,1.67E2,1.746E3,1.107E3,3.26E2,5.4E1,4.17E2,1.31E3,1.009E3,5.94E2,2.14E2,2.37E2,1.01E2,6.6E1,1.411E3,3.35E2,8.23E2,2.84E2,2.32E2,9.4E1,2.3E1,3.1E1,3.22E2,9.5E1,1.098E3,2.12E2,8.24E2,1.85E2,3.62E2,2.32E2,7.7E1,1.37E2,1.58E2,7.9E1,7.8E1,2.3E1,4.8E1,1.8E1,9.29E2,4.82E2,2.45E2,9E1,5.74E2,2.49E2,2.06E2,7.8E1,1.74E2,5.8E1,6.2E1,3.2E1,1.4E1,9E0,1.1E1,2E1],"tree_param":{"num_deleted":"0","num_feature":"16","num_nodes":"63","size_leaf_vector":"1"}},{"base_weights":[2.1554008E-3,-4.1735542E-1,5.602345E-1,-5.248666E-1,4.4482785E-1,4.018438E-1,1.2372433E0,-8.108441E-1,-2.188357E-1,2.5950167E-1,8.977534E-1,2.537372E-1,7.642126E-1,1.0766958E0,1.936359E0,-9.216532E-1,-4.8479423E-1,-1.0573442E-1,-4.1333246E-1,-4.7003593E-2,4.9759322E-1,5.910932E-1,1.2908838E0,3.344028E-1,-5.4349873E-2,8.906096E-1,4.319223E-1,8.934668E-1,1.5603129E0,2.2119038E0,1.2430931E0,-4.1744728E-2,-7.0090815E-2,-3.273068E-2,-1.6586028E-2,-8.670695E-3,6.0268007E-3,-1.7865833E-2,-4.1863807E-2,-9.866199E-3,4.595894E-3,3.211772E-2,